1191 100
. -0.22134866 0.19746067 0.18935597 0.2333308 0.08521703 -0.507224 0.38392654 0.67581874 -0.2773592 -0.5007678 0.5253605 -0.3482758 0.14809257 0.07124725 0.35447976 -0.5195192 0.37087536 -0.49010915 -0.56923264 -0.58654976 0.2128401 0.27233246 0.43147123 0.312252 0.032384332 0.0047590747 -0.002378282 0.58051914 -0.5857067 -0.35023004 -0.04602909 -0.08589832 0.29759032 -0.44974378 -0.006611687 0.13529308 0.4617551 -0.33601025 -0.37585974 0.14325707 -0.543464 0.05740472 -0.21229166 0.058946863 0.18089743 -0.23815747 -0.2759721 0.37233648 0.20310819 0.3528615 0.02453441 0.011406914 -0.50406206 -0.20699783 -0.09612929 -0.2892541 0.21443853 0.021978615 0.03689633 0.109504536 0.07439869 0.09832067 0.4288276 -0.1643563 -0.25409782 0.23885521 -0.2543447 0.35346198 -0.47346026 -0.26292437 0.2813637 0.6077606 -0.03221386 0.027054148 0.25261778 0.24763897 0.073204145 0.37570715 -0.39285553 -0.21597558 -0.32677218 0.2537857 -0.13207556 0.40859103 -0.29123166 0.18226965 0.5300787 0.039501205 0.018936079 0.14645801 -0.073901355 0.21680129 0.1887222 0.10530478 0.95823073 0.056070756 0.17351261 -0.5255746 -0.21007818 -0.2687425
.. -0.5295745 0.22363898 0.10518973 0.23658949 0.18467508 -0.54591644 0.1917732 0.50929797 -0.5424795 -0.5943188 0.2382619 -0.37457263 -0.036086854 0.23879184 0.51073027 -0.1800736 0.65549076 -0.39908776 -0.495709 -0.57837087 0.17404395 0.032468375 0.5444205 -0.16096161 0.34377494 0.19630234 -0.36984813 0.5320844 -0.18605869 0.04748757 0.23364963 -0.12648638 0.019741256 -0.46046415 0.20509413 0.3423426 0.41905886 -0.14541024 0.05325968 0.28562036 -0.13574584 -0.22023198 -0.24659064 -0.011347977 0.009332683 0.15193906 -0.29740605 0.38064092 0.12993442 0.18004668 0.18175697 -0.43641758 -0.5249154 0.102233276 -0.006162332 -0.13283367 0.5176342 0.34504357 0.19746204 0.23414968 -0.16816759 0.028332533 0.54256165 -0.0016249276 0.005908989 0.4162226 0.08267836 0.14693871 -0.2366632 0.052917477 0.18076164 0.40913677 0.07791324 0.23579961 0.10045668 -0.1527681 -0.18878129 0.20830558 0.00026070286 -0.15073761 -0.5544744 0.32701638 -0.0048848945 0.26675937 0.05128958 -0.11623411 0.52790505 0.009135263 0.0890811 0.059649393 0.11345899 0.37971285 0.15511157 -0.06985097 0.67465794 0.21410604 0.41731605 -0.41553903 -0.38878202 -0.12036914
... -0.26203388 0.25787577 0.09234714 0.10668454 0.24094883 -0.23958237 0.23181501 0.4491626 -0.5598798 -0.31159863 0.14542153 -0.5248541 0.26077506 0.07522502 0.492534 -0.19943553 0.59630805 -0.34784436 -0.62564266 -0.69565827 0.16445908 0.07278912 0.40490624 -0.041717727 0.1626421 0.16837053 0.055043053 0.41006434 -0.27552688 0.114080526 0.15723412 -0.15599298 -0.13901626 -0.56460446 -0.10796699 0.23060767 0.36016 -0.16883428 -0.29844624 0.25199148 -0.1374079 -0.10456546 0.04704771 0.09809185 0.38534904 0.28044093 -0.3111735 0.14718612 -0.11004287 0.17776759 -0.05219168 -0.16244593 -0.3840193 -0.35412312 -0.2719782 -0.38771325 0.23471476 0.08143635 0.04281021 0.26935622 0.10525653 -0.36166 0.43159923 0.14423229 -0.011515378 0.3485831 0.031410724 0.5751709 -0.47041497 -0.05528827 0.21805833 0.41859624 0.29660952 0.11121049 -0.034168087 0.10513308 0.21699888 0.2012527 -0.055204034 -0.25868043 -0.4506784 -0.15922736 -0.19389741 0.1908366 -0.09118332 -0.32924363 0.33828706 -0.04665095 0.49312454 -0.22302139 0.015421784 0.43624097 0.06259102 -0.05017872 0.6793882 0.36268824 0.14562464 -0.3407967 0.15492627 -0.23341095
, -0.2577074 0.35415933 0.08693726 -0.14303294 0.3328772 -0.37121245 0.6403911 0.6313423 -0.232785 -0.5378859 0.5134616 -0.33351198 0.30140367 -0.074670486 0.4868282 -0.6030524 0.513633 -0.42466834 -0.5812049 -0.35096338 0.17508188 0.20427294 0.56207204 0.4033281 -0.08810649 0.03221532 0.15332581 0.43962315 -0.51249987 -0.42486873 0.07770696 -0.06945992 -0.05371632 -0.3290815 -0.05009583 0.29626182 0.4731129 -0.47403282 -0.60521275 -0.11035355 -0.52844936 0.08731861 0.34572873 0.0483133 0.34659222 -0.09545965 -0.0311242 0.018956315 0.11451443 0.22501959 -0.09811763 -0.12907325 -0.5140162 -0.45828843 -0.3973697 -0.3774974 0.2022922 0.07082542 -0.04556906 -0.17880425 0.36680734 0.2180403 0.5522141 0.05125236 -0.32166734 0.19393185 -0.3231456 0.5739754 -0.7516788 -0.39766762 0.4896283 0.532261 0.19231787 0.31465846 0.2559334 0.20058858 -0.0028866436 0.5929412 -0.7286886 -0.18565099 -0.11956053 0.193105 -0.34151098 0.4670075 -0.037323616 0.12444355 0.52313775 0.12665124 -0.24442253 -0.30407196 -0.016611429 0.10763393 0.04120806 0.104210384 0.9833523 0.13144237 0.3669805 -0.72340935 0.0006371126 -0.52043813
? -0.10531451 0.20837238 -0.05221752 0.17131789 0.0409529 -0.4338674 0.16215119 0.5890381 -0.7360057 -0.19672425 0.12969913 -0.35911483 -0.06567198 0.43023545 0.16911834 -0.38027155 0.35144043 -0.21805504 -0.43572938 -0.776993 0.17544669 0.029478755 0.55874276 0.2918535 0.1101395 -0.00090498885 -0.14931671 0.5530909 -0.42794693 -0.09264384 0.18967725 -0.09800218 0.18427964 -0.45109284 0.12581126 0.21213704 0.4955526 -0.10014293 -0.0987104 -0.13652772 -0.3350064 -0.33828485 -0.4954785 0.22667381 0.22880961 -0.15532419 -0.55362594 0.38369805 0.29861867 0.08963066 0.06484963 0.0808878 -0.3111287 -0.20774743 0.18774998 -0.2626493 -0.010906359 -0.37324396 0.0031678344 -0.0949445 0.08138644 -0.23560916 0.27108052 -0.00611907 -0.12236439 0.3753483 0.101241216 0.51074207 -0.48276278 0.2822172 0.0057194824 0.6290742 -0.11427442 0.15209949 0.26206136 0.29341233 0.051253926 0.45297787 0.0032808892 -0.33678937 -0.31656235 -0.08915258 0.042336773 0.31456068 -0.31661147 -0.103596896 0.3972533 0.15953675 0.24284667 0.18468755 0.21153331 0.11672006 0.19425634 -0.14157961 0.7625215 0.07738187 0.22027493 -0.28005317 0.025161123 -0.18281864
! -0.3503037 -0.08771557 -0.26675317 -0.23015797 -0.045595 -0.03714678 0.035632834 0.300357 -0.38956416 -0.3735463 0.27748823 0.054109555 -0.16981529 -0.15062062 -0.02101886 -0.41895944 0.37389553 -0.7123987 -0.42559138 -0.4719226 -0.056637447 0.19180733 0.4741114 0.7329456 0.105273224 -0.072823875 0.002305164 0.05079096 -0.0037655463 -0.21698289 -0.051168017 0.11484236 -0.10772146 -0.101197675 0.2382922 0.236267 0.3550033 -0.24190821 -0.05394837 0.033146527 -0.20248261 -0.20802699 -0.01872531 -0.18408415 0.26860967 0.0867666 -0.5451982 0.6095686 -0.023997175 -0.1288682 0.14861186 -0.09713901 -0.34964383 0.06612122 -0.13097148 -0.54111475 0.3496322 -0.35858968 0.1786076 -0.41914868 0.12281604 -0.011716819 0.8574092 -0.010755779 -0.03768568 0.054533593 -0.07477839 0.1859977 -0.5606268 -0.5735591 0.24079268 0.7041145 -0.3257594 0.058999855 0.042254202 -0.08229195 0.017741818 0.4211837 -0.0794846 0.13296156 -0.008759865 -0.23420097 0.0643237 0.37020135 -0.10939376 -0.067004845 0.17488971 0.43638358 -0.094559446 0.118012585 0.067726985 0.51413107 -0.030268267 0.22552647 0.6929379 0.05398443 0.14844109 -0.5194865 -0.18846864 0.04928455
~ -0.13218829 -0.22213735 -0.09843012 0.04379828 0.29973173 -0.011822548 -0.078336455 0.027419474 -0.43035173 -0.336 0.22765101 -0.025597999 -0.16897665 0.7353954 0.23884489 -0.118059546 0.5237754 -0.003103075 -0.5668655 -0.686461 0.30488646 0.11460346 0.38042194 0.43210974 0.67046595 0.44369668 0.06416068 0.1874716 -0.13882782 -0.12320254 0.044568885 0.2976493 -0.19292969 -0.051533815 0.34805602 0.23570684 0.17955562 -0.5152564 -0.105767444 -0.011786182 -0.1395327 -0.32487413 0.24491829 -0.027464494 0.33915424 0.31712082 -0.95443004 0.09835558 0.2183118 -0.11188597 0.047836337 -0.35085043 -0.641491 0.03786891 -0.1244364 -0.5037891 0.16037196 -0.14201841 0.088947415 -0.3174298 -0.032411177 0.036085624 0.6368447 0.2881487 0.018048594 0.3559936 -0.30080822 0.22949933 -0.29435527 0.040876184 0.21918622 0.72341734 -0.51165366 0.05922203 0.118102916 -0.37575224 0.29300395 0.45126572 0.093963936 0.047671467 -0.18907645 -0.33158472 -0.2527997 0.16018084 -0.1296012 0.14845337 0.57919556 -0.17531629 -0.21191059 0.052345317 -0.11528954 0.47478473 0.11683381 0.32110754 0.20400833 0.2728548 0.50788563 -0.6400586 -0.40897042 0.25376806
.... -0.14008906 0.1567559 0.13198844 0.24031211 0.15897913 -0.24820665 0.14856131 0.37683436 -0.60976565 -0.2808656 -0.030633211 -0.52611923 0.242027 0.21152057 0.42106882 -0.021983374 0.58825785 -0.28823665 -0.45949617 -0.65811783 0.14744847 0.09716458 0.31061262 -0.20877653 0.1087464 0.23636664 -0.27230704 0.41971782 -0.12238761 0.25968632 0.14546108 -0.12987527 -0.0737119 -0.4581516 -0.11332173 0.27378634 0.20663857 -0.20292062 -0.19549201 0.12646338 -0.041503016 -0.13589056 -0.07276678 0.19454953 0.29179657 0.20160998 -0.360125 -0.011296546 0.017325297 0.20429336 -0.113464996 -0.27870882 -0.29779127 -0.2619555 -0.10471665 -0.11006889 0.11288621 0.21609105 0.15856312 0.27558988 0.044611808 -0.34456322 0.22285013 0.2211479 -0.08288124 0.5100306 0.09545308 0.45066133 -0.41974464 0.18750359 0.025208818 0.38297817 0.28486452 -0.048886623 -0.05739519 0.08287826 0.14445654 0.07449232 -0.019490743 -0.17664218 -0.5653664 -0.13768265 -0.19625677 0.27872697 0.012611681 -0.23352216 0.28223777 0.038019028 0.56175905 -0.15563414 0.03741479 0.2874642 -0.038766775 -0.01886729 0.4593207 0.2620342 0.22495551 -0.13865325 0.12600122 -0.09986738
1 -0.36599922 0.30523014 0.33369705 0.053560097 0.1051716 -0.6382103 0.26887155 0.7621508 -0.36681965 -0.5020747 0.29852727 -0.4695812 0.11707792 -0.06757392 0.3897728 -0.40518034 0.46918136 -0.88821435 -0.51877123 -0.8497077 -0.07199759 0.3398451 0.6016667 -0.099410325 0.06864463 0.22666632 -0.54549307 0.5772737 -0.04691104 -0.20515394 -0.1798988 0.09266155 0.30497128 -0.4429821 -0.07097215 0.26210073 0.28623903 -0.6010607 -0.2567765 -0.23206764 -0.62191594 0.13826261 -0.0971944 -0.17906423 0.03594011 -0.24931495 0.038565364 0.45564613 -0.08188292 0.35448834 0.09301908 -0.073977314 -0.4837267 -0.098211594 0.00904571 -0.45466465 0.1086522 0.21816811 0.44163722 0.17706528 -0.07330911 -0.20449428 0.51767665 0.14124061 -0.14963037 0.20517787 -0.047144163 0.2905944 -0.9593542 0.11471115 -0.008780188 0.85115486 0.03546611 -0.075515576 -0.15351354 0.020156082 -0.25883153 0.07574539 -0.27575815 0.0028823256 -0.21620993 0.41106093 -0.02615422 0.5110838 0.14983591 0.12172579 0.3241378 0.23889676 0.10658227 0.33176973 0.16288956 0.03815928 0.05081845 -0.20889978 0.8018143 -0.060624246 0.29380158 -0.21445547 0.00073797686 -0.17660221
!! -0.26076064 -0.25972626 -0.17898785 -0.2088233 0.23467512 -0.2703234 -0.19989775 0.24907713 -0.3523707 -0.28299743 0.18115029 -0.28349507 -0.031416785 0.2589132 0.17183912 -0.1541252 0.5134862 -0.6917466 -0.3660229 -0.48518792 0.12828071 0.31108162 0.03674385 0.32298028 0.4100517 0.16275008 -0.09054408 0.4010328 0.15696996 -0.27572575 -0.12051462 0.27503774 -0.07517893 0.013055248 0.16103478 0.090875626 0.32480127 -0.3781021 0.087790474 0.29650477 -0.33845517 -0.029437786 0.36859182 -0.12096956 0.13250348 0.32126084 -0.6457132 0.64602643 0.08147753 0.035051525 0.05715953 0.039928526 -0.34369096 0.1986809 0.0656344 -0.49445832 0.37509266 0.18325783 0.63947046 -0.016154552 -0.089044996 -0.06611745 0.5331873 0.45891356 -0.008946453 0.033529278 -0.33438864 0.013393928 -0.5098279 -0.07847157 0.18095104 0.5875188 -0.2107963 -0.31559727 -0.13736045 -0.3603844 0.1712702 0.15169196 0.01597639 0.087955795 -0.27324665 -0.11605835 -0.17707309 0.36456236 0.14375396 0.23777796 -0.027074832 0.32711998 0.20479733 0.031402137 -0.057923455 0.5048066 0.16388309 0.44727373 0.35508344 0.09809899 0.13386028 -0.32134897 -0.15931317 0.15251844
10 -0.2924168 0.16778241 0.26174432 0.0046696477 -0.10988175 -0.62133753 0.2051313 0.55065244 -0.34172833 -0.4569034 0.32010254 -0.53159744 0.077101715 0.14338551 0.09138253 -0.2430652 0.47682753 -0.5561064 -0.44003287 -0.7448064 -0.027124688 0.40419337 0.6406045 -0.012865509 0.23134859 0.13219588 -0.21505527 0.51476586 -0.39635947 0.054824855 -0.13433588 0.0039674197 0.3749739 -0.54930955 -0.20899391 0.4691231 0.3938606 -0.20640822 -0.21749571 -0.0055196253 -0.35991997 -0.03901676 -0.412523 -0.09454073 0.10878336 -0.20636639 -0.3618407 0.48262843 0.10671862 0.30393788 0.13090183 -0.0054839477 -0.34547248 -0.113151 -0.09162039 -0.43855456 0.23108605 0.021257568 0.22448355 0.14528358 -0.13166596 -0.2653174 0.38306433 -0.04168698 -0.13077779 0.15964592 -0.32192773 -0.018992519 -0.5778543 0.16375977 0.089709096 0.89184016 -0.066178 0.010101311 0.19816343 0.061686594 -0.019152772 -0.0050263572 -0.055233683 0.062468305 -0.08353042 0.24109355 0.06270353 0.22603789 -0.21855374 -0.024663648 0.1148819 0.25849232 0.1486756 0.34360892 0.31410536 0.26315284 0.12090351 -0.26150876 0.5456018 -0.036891434 0.19255449 -0.28479496 -0.12857996 -0.12481486
2 -0.40609792 0.43053633 0.31719562 -0.06289368 0.2758686 -0.5737544 0.12773697 0.71805835 -0.24979669 -0.57325643 0.36738777 -0.39930773 0.27005628 -0.05366819 0.4955515 -0.5308369 0.51367253 -0.9055481 -0.570858 -0.834093 -0.11528564 0.21964347 0.42117715 -0.059573855 0.020044055 0.11973856 -0.31028637 0.6567691 -0.06924641 -0.21128702 -0.13848822 0.09628997 0.03074962 -0.41135767 -0.017783998 0.24207133 0.26403847 -0.6589984 -0.31329662 -0.1745823 -0.5675859 0.23727062 0.13464952 -0.27387455 -0.017682286 -0.18608488 0.017197961 0.3553909 -0.16007869 0.38837796 0.18082209 -0.13136971 -0.5100854 -0.15371223 -0.20166385 -0.48230276 0.22156295 0.31978706 0.35104248 0.26338965 0.044532306 -0.109672636 0.526445 0.11471591 -0.14131804 0.12840964 0.027099345 0.32955268 -0.93529373 0.03460804 0.19732113 0.8355712 -0.01059053 0.02238564 -0.15030108 -0.013566604 -0.10751134 0.14309916 -0.28690493 -0.03687377 -0.27613282 0.50389326 -0.22808796 0.51498693 0.11498992 0.11331737 0.23026474 0.23821135 0.20254552 0.31373888 0.13784611 0.06599749 0.008463381 -0.07782675 0.6809268 -0.031407543 0.32002673 -0.44046077 0.06206512 -0.20571873
3 -0.5716505 0.45058018 0.2702731 -0.24369594 0.43427524 -0.47439072 0.22065288 0.78454465 -0.22630954 -0.74929655 0.47543862 -0.4159479 0.36143297 -0.0765305 0.50329894 -0.6711854 0.65038484 -0.87876976 -0.59936994 -0.8039427 -0.18810533 0.3635533 0.4673187 0.11083384 -0.13597049 0.12333246 -0.22512825 0.6607529 -0.20116228 -0.14878261 -0.14085296 0.0665101 -0.049937684 -0.40298712 -0.11234046 0.30739224 0.03382071 -0.82145345 -0.3584829 -0.274181 -0.4360744 0.46917057 0.097756274 -0.28141087 0.124851175 -0.25503048 -0.048656944 0.10282607 -0.14682795 0.39704916 0.23558675 -0.18942076 -0.5863739 -0.33821964 -0.2841783 -0.47919065 0.16392013 0.4281144 0.33720854 0.08404218 0.07366013 0.07540482 0.59808654 0.061489403 -0.29047015 0.20074205 0.08693901 0.24788992 -1.0218103 -0.07484824 0.34775633 0.9399979 -0.02975588 0.039882068 -0.1136963 -0.0034409147 0.06178616 0.12970227 -0.59969294 0.064737536 -0.34632725 0.59310424 -0.30195728 0.69109213 0.09414158 0.17199449 0.3863014 0.2995811 -0.05309951 0.22766222 0.055279147 0.054069214 0.06999222 -0.03239274 0.7586679 -0.026493901 0.66170985 -0.51155245 0.13886486 -0.14709109
^^ -0.19526419 -0.10168831 0.008079001 0.01565547 0.15507558 -0.12118896 -0.1194667 0.14746717 -0.2419617 -0.30713037 0.20033407 -0.0848449 -0.10366602 0.37693724 0.1758878 -0.13733736 0.34042877 -0.26730224 -0.47248816 -0.62873703 0.1659543 0.25142452 0.23580892 0.29354113 0.44567284 0.28062788 -0.030431483 0.17266013 -0.1093035 -0.10384828 -0.08559181 0.23548447 0.0025532225 -0.1359891 0.18485373 0.16979752 0.104498394 -0.39062285 -0.10454715 0.005076612 -0.22012588 -0.11409442 0.09284777 -0.094727404 0.16805446 0.09131581 -0.62287533 0.22790001 0.13369708 0.056623694 0.092798516 -0.17441228 -0.47136864 0.07631541 -0.087116495 -0.4165787 0.19574544 -0.06145175 0.12575123 -0.079020575 -0.039580505 0.020883968 0.499201 0.1493318 -0.02721342 0.17675091 -0.23808867 0.06491337 -0.3445434 -0.013391735 0.1483756 0.6465026 -0.40435794 -0.09513692 0.024502663 -0.21999566 0.21317767 0.19832277 0.02789258 0.05988932 -0.11908833 -0.1445876 -0.15601327 0.17756973 -0.119061016 0.1961037 0.284064 0.021514863 -0.063234545 0.18330933 -0.042611998 0.3800582 0.12800543 0.22587435 0.1600676 0.1117547 0.2751232 -0.44548464 -0.2958596 0.2058024
!!! -0.14055066 -0.15814674 -0.20719536 -0.4251234 0.24012412 -0.14459181 -0.18221572 0.30427283 -0.21178629 -0.265361 0.11874174 -0.3741391 -0.12278846 0.10669788 -0.055529602 -0.03276276 0.52652514 -0.6717064 -0.35841465 -0.63109225 0.22340517 0.3756172 0.09749401 0.3662389 0.3013268 0.20909266 0.076037906 0.080592416 0.28795066 -0.20621006 -0.15248953 0.26681164 -0.08587957 -0.11779937 0.058879454 0.1017452 0.3104866 -0.30972102 0.002355345 0.18387796 -0.07456768 -0.1297089 0.4508201 -0.15217812 0.30414215 0.46192724 -0.7333842 0.41837397 -0.014718002 0.029325156 0.054993223 -0.00450993 -0.22257082 0.094493315 -0.13091004 -0.602721 0.37055194 -0.006686819 0.4604895 -0.045596212 0.00016943064 -0.24108107 0.5671153 0.47811538 0.043255817 0.09174465 -0.3162174 0.11573941 -0.6020622 -0.14063384 0.11516106 0.5870783 -0.10288273 -0.3108906 -0.113142945 -0.4090902 0.36085406 0.11155005 0.05790694 0.17138898 -0.242788 -0.34853226 -0.17703287 0.22873907 0.10593218 0.07922562 -0.09003641 0.39624405 0.22641283 -0.09114785 0.09521178 0.52560985 0.19926807 0.4252108 0.22752303 0.15567052 0.036688123 -0.24043572 -0.14580415 0.37473848
?? -0.21804893 0.11480186 0.037834167 0.04468745 0.07839711 -0.49115533 0.004432738 0.48088253 -0.6044962 -0.20034218 0.014982657 -0.5409761 -0.1527614 0.33597717 0.24386662 -0.073715456 0.4992613 -0.35277247 -0.30881122 -0.6957662 0.23808275 0.109985694 0.4308129 -0.015482188 0.24677812 0.28013772 -0.30800274 0.41941512 -0.021994784 -0.024668094 0.1724705 0.00034060713 0.0845638 -0.2925608 0.083220765 0.264721 0.46173927 -0.25432473 -0.0954989 0.11121249 -0.14642541 -0.29057422 -0.05841636 0.06671266 0.22145584 0.28724718 -0.56187695 0.32736024 0.1303797 0.03586694 -0.07048804 -0.11161259 -0.2605806 0.04634219 0.09306833 -0.2356946 0.20487092 0.041781753 0.35839328 0.2244326 -0.038150523 -0.3078135 0.2459774 0.27581328 0.10967047 0.274299 -0.006820833 0.42969608 -0.44601163 0.2625502 -0.079630636 0.5201547 0.10691979 -0.068937816 0.12881126 -0.017809266 0.0338493 0.13122128 0.1263578 -0.1756191 -0.3952037 -0.17734855 -0.035859644 0.37676963 -0.055880718 -0.100089766 0.17653967 0.020156266 0.4527136 -0.015708758 0.14666905 0.31346774 0.09004503 -0.11385648 0.42825335 0.2825679 0.21721838 -0.12159905 -0.008714617 0.041237973
~~ -0.1092156 -0.2860712 -0.088848285 -0.12176626 0.2844706 -0.09235977 -0.23521829 0.18070364 -0.41394094 -0.2522269 0.038107887 -0.32863566 -0.24420679 0.6293825 0.117973134 0.07874431 0.46707922 -0.23713674 -0.43662828 -0.68166417 0.3593485 0.27874148 0.35517767 0.24169725 0.5909719 0.51871866 -0.05571012 0.110427275 0.102646664 -0.002515821 0.0038324224 0.23567553 -0.07445764 -0.17370959 0.20598064 0.29054824 0.18529038 -0.43711355 -0.14396656 -0.030708563 -0.13585135 -0.27742 0.28409085 0.023476696 0.31999436 0.43477762 -0.84601194 0.1217268 0.17047025 -0.014080655 -0.0711416 -0.28927743 -0.41932738 0.1323201 -0.020890491 -0.48478776 0.13851373 -0.058527157 0.24814129 -0.112276055 -0.013998189 -0.097028956 0.5070891 0.4745706 -0.0018792454 0.3123972 -0.2797367 0.24081104 -0.43966937 0.24829987 0.16298412 0.6736887 -0.256103 -0.15910654 -0.03153814 -0.407869 0.30250004 0.18673505 0.1692487 0.02997255 -0.25223067 -0.42761937 -0.25817454 0.122844234 0.0037614838 0.101955 0.19346327 7.9092395e-05 0.027189026 -0.08092905 0.060463145 0.4468428 0.14861462 0.3056407 0.0005252414 0.35143435 0.24652775 -0.37330797 -0.27574536 0.34418488
;; -0.3295354 0.41970846 0.11716728 0.01103573 0.14186363 -0.69564384 0.21614036 0.47475877 -0.77355516 -0.40345275 -0.21471824 -0.5699747 0.1427071 0.2855941 0.69018304 -0.018157784 0.47299144 -0.11103851 -0.21067344 -0.7584767 0.023079554 -0.0433639 0.23484863 -0.317558 0.12896322 0.0934097 -0.6320477 0.18579577 -0.038030732 0.17101836 0.52709156 -0.12395762 -0.15917477 -0.31562075 0.12578256 0.4443779 0.12487657 0.067901954 0.19330736 -0.026982635 0.19674306 -0.4203085 -0.15645131 0.3127528 0.2782666 0.10732878 -0.34375596 0.020781083 0.14842087 0.16102687 0.39752582 -0.26518247 -0.06415499 -0.16414979 0.19546337 0.14293364 0.3266939 0.49324664 0.12092754 0.1890031 -0.19184265 -0.16651022 0.11525974 0.17342491 0.0889966 0.54221195 0.3013248 0.18841471 -0.197819 0.40513155 -0.1711072 0.18688402 0.3198318 0.22091815 0.23446071 0.36353466 -0.07702428 0.077788554 0.15340313 0.17485277 -0.5409732 0.12462007 -0.078106776 0.3080445 0.2886475 0.004688996 0.3708225 0.1135137 0.67266005 0.07854475 0.24186705 0.35126254 0.090363994 -0.19008568 0.69280237 0.38743874 0.57761604 0.0737168 -0.06281263 -0.42027166
,, 0.08824846 0.16524988 -0.36938965 -0.02119015 0.30746454 -0.5845297 0.38476828 0.79122835 -0.6770241 -0.676507 0.3813776 -0.6560516 0.12727693 0.4432206 0.7691164 -0.45239556 0.6357697 -0.20056708 -0.12362411 0.12675571 0.41734523 0.070151 0.5516489 0.319661 -0.011923071 0.02280327 -0.48917946 0.5799874 0.15365914 -0.6072375 0.35506225 -0.31270346 -0.12822662 0.019159194 0.10641189 0.2563092 0.68533176 -0.084788665 -0.2444279 -0.31794217 -0.6679281 -0.12118731 0.43726468 0.37189102 0.0049560694 0.1873077 -0.35096484 0.08542508 0.36140057 0.043421295 -0.25345415 -0.39240322 -0.4065348 -0.1947716 0.25981915 0.05820993 0.25207788 0.057073712 0.41802728 -0.28435087 0.14052385 0.57960397 0.5761502 0.37422776 -0.46090212 0.57395947 0.046127405 0.67160994 -0.64122564 0.08836536 0.5891897 0.11929882 0.4111308 0.3774662 0.3509138 0.22184953 -0.24053663 0.7094299 -0.9534668 -0.5486735 -0.59638464 0.13702485 -0.12060016 0.5839613 0.49665415 0.3069955 0.35176298 0.20165183 -0.2654326 -0.44447434 0.300948 -0.13804632 -0.031163942 0.43234557 1.0481607 0.28718632 0.3755161 -0.5180511 0.052405298 -0.3881517
..... -0.1769445 0.18896233 0.11271186 0.18038493 0.110624634 -0.27634105 0.07229935 0.322613 -0.47899264 -0.27943504 -0.060750652 -0.5710947 0.19558048 0.19350386 0.3955213 0.04945987 0.49698848 -0.2676624 -0.33856702 -0.6058666 0.12662171 0.11470825 0.16779567 -0.22761165 0.22870722 0.24731015 -0.2579235 0.27991858 -0.059753608 0.19312155 0.19286926 -0.110820234 -0.06639193 -0.42613763 -0.110124506 0.29137376 0.23684649 -0.08881817 -0.10463361 0.12839319 0.014976382 -0.18202676 -0.07644441 0.13206245 0.19305372 0.23036975 -0.35270464 0.045741472 -0.028789917 0.21023847 -0.024964076 -0.32640842 -0.24677122 -0.104687594 -0.104811944 -0.08594147 0.24240428 0.22273831 0.12206591 0.31927037 -0.033223752 -0.30576974 0.23839846 0.1555471 -0.06569898 0.41183758 0.05107559 0.2965348 -0.30669254 0.22362395 0.0009102884 0.35309923 0.26556316 -0.028479693 0.007496232 0.040402975 0.08131263 -0.0071953665 0.057097346 -0.118797936 -0.5131164 -0.15357794 -0.16607809 0.17068987 0.031729948 -0.21388178 0.13919431 0.006859151 0.54330623 -0.09839261 0.07748035 0.38326323 0.0052943355 0.004393848 0.3632244 0.31812844 0.19236355 -0.09607326 0.01708865 -0.05271592
' 0.106697485 0.14085431 -0.09083579 1.1354148 0.12215712 -0.0027020974 0.2357908 0.69038457 0.10596794 -0.49723965 0.82380354 -0.31982136 0.5594201 0.44740647 0.5573777 -0.6847685 -0.10285543 0.02806489 -0.9964974 -0.50208235 0.0428899 0.6295541 -0.23713213 0.8655343 -0.018377231 -0.49253264 0.25585154 0.4401906 -1.107168 -0.6505218 -0.11277804 -0.8106103 0.35597068 -0.1884164 -0.22238608 0.3145855 0.5610856 0.3587732 -0.35902482 0.35243014 -0.19540013 -0.050217524 -1.0251207 0.7499209 0.028917262 -0.8329128 -0.95980775 -0.0027872913 0.54262155 0.6903897 0.6635994 -0.54317415 -0.4742277 -0.38747683 -0.49486858 0.2035701 0.45969918 -0.3772728 -0.70888835 -0.53658915 -0.033305265 0.71747625 0.9216472 -0.9453238 -0.94756824 0.95221055 -0.40023357 -0.10841872 -0.027609605 -0.5522819 0.46553406 0.6229642 -0.63376033 -0.14581883 0.65065485 0.9797114 0.412927 0.6832966 -0.78572226 -0.13645102 -0.78037167 0.20459057 -0.25909662 -0.1571701 -0.8194321 0.9344193 0.6879378 -0.11927157 -0.3443019 0.86553913 -0.6502022 0.5124748 0.219056 0.69685215 1.4524509 -0.2841534 0.31441888 -0.43066162 -0.90327466 -0.34329012
4 -0.5596638 0.48517007 0.39854968 -0.52276665 0.3159159 -0.60781425 0.29168412 0.68005717 -0.21807203 -0.6255664 0.3754209 -0.5109981 0.41538417 0.023637703 0.34185964 -0.6561469 0.7357954 -0.84582144 -0.5452085 -0.8062764 -0.16583724 0.29624602 0.5312738 -0.06842641 0.088741265 0.24810563 -0.08114599 0.5897187 -0.33253586 -0.22450675 -0.046687353 0.26627195 -0.077812076 -0.6813834 -0.24559714 0.29074106 0.120080136 -0.83347934 -0.4756505 -0.44464898 -0.59349185 0.37138355 0.25758103 -0.43913046 0.13658905 -0.28764763 0.105839804 0.13349266 -0.18914446 0.35226136 0.11726545 0.021960462 -0.55384195 -0.28348163 -0.40068567 -0.7088453 0.21385722 0.34169978 0.17252415 0.19767736 0.3045616 -0.11197557 0.46782932 0.20356785 -0.2277255 -0.08577212 -0.2061976 0.15009205 -1.0013359 0.15535729 0.3669777 0.97543484 0.06588583 0.16831231 0.024340246 -0.14568269 0.0062908884 0.22189388 -0.46726754 0.05318257 0.016137874 0.53861463 -0.41525978 0.5760281 0.09627051 0.04541029 0.21462364 0.47346604 -0.1411699 0.12510142 0.37160644 0.049427047 0.0718228 -0.2664811 0.5043915 0.17910276 0.5164474 -0.6829603 0.17973676 -0.32238296
OO -0.1560055 0.28905666 0.23250362 0.42477882 0.061033852 -0.5944369 0.081942536 0.5899917 -0.46127036 -0.62708086 0.22066705 -0.5844258 0.10020994 0.35065883 0.53091425 0.0040805163 0.25049686 -0.21157418 -0.36179024 -0.66747385 -0.010181776 0.31136537 0.31520784 0.01024311 0.36914045 0.22370453 -0.3763492 0.59489775 -0.12526073 0.04741639 -0.031261507 -0.19818266 0.14931457 -0.48346594 0.006300728 0.47804707 0.5245327 -0.21050648 -0.14512235 0.09405881 -0.12531571 -0.2154191 -0.56987333 0.053266957 0.06959574 -0.08888905 -0.3930728 0.3153954 0.057839204 0.23025402 0.259232 -0.39038712 -0.40447673 -0.03957617 0.08034726 -0.112367816 0.1807457 0.042257912 0.21076396 0.22532885 -0.3566448 -0.12272229 0.42937604 -0.0035519674 -0.03251815 0.4593587 0.0104522025 0.29605916 -0.53269976 0.40357932 -0.0012794496 0.64717734 0.04892343 0.0652918 0.04342657 0.23196825 -0.2106204 0.005755225 -0.026875226 -0.15771855 -0.5079868 0.11301138 0.20104505 0.07899955 -0.07471136 0.11368445 0.37954828 -0.087704934 0.36367464 0.34894025 0.10726166 0.22629794 0.025813317 0.0021067865 0.67897534 0.038570847 0.27013806 -0.16331242 -0.038382012 -0.007699847
5 -0.31265712 0.2554356 0.2986299 -0.036053166 -0.004722536 -0.6203951 0.32564124 0.6397198 -0.35889027 -0.36548877 0.31053832 -0.5970404 0.13787086 0.06535237 0.24642621 -0.44645005 0.59548926 -0.6643868 -0.3383167 -0.70596653 0.22160679 0.20588836 0.6843909 -0.01880138 -0.0050093755 0.28012398 -0.219669 0.56389433 -0.4207711 -0.13768774 0.10313008 0.06493537 0.26428404 -0.6146083 -0.13532074 0.17498256 0.35916784 -0.3667846 -0.42248416 -0.04324365 -0.48461673 0.0790303 -0.078088365 -0.11698238 0.17295417 -0.17292622 -0.19412088 0.32279631 0.06884055 0.30845964 -0.065907136 0.09142142 -0.36484542 -0.19638808 -0.1234754 -0.37843278 0.12602803 0.15207346 0.17464106 0.27055863 0.060966115 -0.23324156 0.23752154 0.062455874 -0.15519412 0.111963086 -0.1833273 0.3890703 -0.5854438 0.10223031 0.15943252 0.7483567 0.14428993 0.03537794 0.23862614 0.06553249 0.059588503 0.19326748 -0.19214422 -0.09315122 -0.27424803 0.21469165 -0.15747868 0.5257302 -0.17253551 -0.124054074 0.27803302 0.2111803 0.18296526 0.07871599 0.25121105 0.10061564 0.12233856 -0.29379728 0.6605072 0.23590809 0.29575613 -0.36191195 -0.0396763 -0.21780391
; -0.25210473 0.39288843 0.028946433 0.048491757 0.056197595 -0.7433579 0.31521347 0.68817836 -0.7770719 -0.47254944 -0.026858803 -0.48169693 0.08690722 0.31262526 0.5774099 -0.1383336 0.42700794 -0.12783138 -0.3327404 -0.6506181 0.019071613 0.027094137 0.3400145 -0.03796967 -0.0060789646 -0.08888693 -0.5079344 0.345241 -0.107374124 -0.015523623 0.47898564 -0.18319649 -0.031775653 -0.27209345 0.11263386 0.3804928 0.36312777 0.021843696 0.1450579 -0.043930825 -0.040324245 -0.34248647 -0.2418128 0.28809845 0.26009268 -0.0130113065 -0.33784306 0.15992688 0.25890738 0.1650292 0.36109915 -0.14569926 -0.16676147 -0.24851055 0.27163637 0.15966278 0.29834858 0.2991968 0.14867769 0.07119021 -0.09897563 -0.036283188 0.20142905 0.07289522 -0.024415424 0.5196014 0.2693483 0.2425933 -0.335117 0.3539534 -0.04646427 0.19113882 0.26051006 0.23775879 0.26932955 0.43103063 -0.086709924 0.23614274 -0.06877724 -0.004224056 -0.4570601 0.1886138 0.0047285156 0.4022515 0.2148098 0.08375829 0.3909352 0.20733167 0.48832518 0.15225273 0.266679 0.15031017 0.10470569 -0.1376199 0.8843491 0.18977459 0.51222634 -0.075556494 0.023961287 -0.43937638
0 -0.17500506 0.18747053 -0.0648714 -0.014325617 0.109427445 -0.3318437 0.16320446 0.72581726 -0.73085886 0.111111246 -0.21545903 -0.23149946 -0.056316063 0.20896775 -0.044957902 -0.3703594 0.4295864 -0.61557513 -0.5669265 -1.0873338 -0.004163251 0.027357027 0.58337945 -0.017435484 -0.0019628694 -0.0692547 -0.4970054 0.52102077 -0.15668043 0.014605157 0.023606813 0.14535888 0.27219638 -0.4906537 -0.11158602 0.2913483 0.33587062 -0.3444914 -0.059622258 -0.32344484 -0.4346063 -0.37395 -0.3164688 0.036908887 0.045803092 -0.3690625 -0.09375639 0.34570462 0.19841203 0.22162092 -0.048113205 0.11867623 -0.40637684 -0.02601034 0.118625455 -0.2783371 -0.057776883 -0.3179378 0.1083806 -0.06979471 0.33079138 -0.5607854 0.26669005 0.15675071 -0.07403602 0.33390903 0.21387444 0.12867363 -0.8930005 0.303108 -0.3088623 0.6154446 -0.20987423 -0.16016889 -0.08833582 0.026422039 -0.13035725 0.39609972 0.06092136 -0.01766881 0.07529646 0.22511767 -0.13393243 0.4644082 -0.15256213 -0.10822334 0.15273161 0.63238746 0.30609295 0.31026468 0.30546072 -0.05012052 0.0235776 -0.5476388 0.476179 -0.28662708 0.16009077 -0.1611255 0.14662513 -0.2075803
- -0.5867417 0.22672816 -0.19335233 0.18778771 0.24927475 -0.07302006 0.65075815 0.6313577 -0.7011834 0.31726748 -0.24331427 -0.03175112 0.2821561 -0.39898044 -0.2704853 -0.7264424 0.47627845 -0.9286915 -0.27937588 -1.0544584 0.25379512 0.06277765 0.70200336 0.102438554 -0.5344149 -0.3818054 -0.5008406 0.45247635 -0.45551747 -0.04044632 0.294562 0.3070848 0.3115494 -0.2800431 -0.13394417 0.418814 0.0056573804 -0.12904096 -0.35344678 -0.22570087 -0.20562579 -0.3823461 -0.23347858 0.076693274 -0.061274596 -0.73334086 0.3556763 0.08029911 0.30091375 0.25575864 -0.017422926 0.08080655 -0.32118648 0.14760989 -0.39258623 0.03122439 0.17381969 -0.3105263 -0.44189698 -0.28943652 0.51904935 -0.32932213 0.3839653 -0.24701801 -0.6068355 0.19082531 0.1677505 0.02730152 -1.0411971 -0.18349083 -0.12733428 0.4603134 -0.029276654 -0.10337218 0.0050701033 -0.07084959 -0.06603792 0.5433176 -0.30046007 0.36078215 0.122662164 0.51622176 -0.45440164 0.77213156 -0.35739863 -0.23354366 0.0044600866 0.97025836 0.2246563 0.2748498 0.37497228 -0.12825866 -0.0050644614 -0.57107747 0.54043186 -0.38552603 0.33739883 -0.26398942 0.06845057 -0.3777249
7 -0.2727172 0.2010006 0.29461932 0.02852957 -0.0398432 -0.65176225 0.23169017 0.5754119 -0.41132957 -0.39580673 0.30582818 -0.5989383 0.082469486 0.32768762 0.19979687 -0.30993435 0.5138557 -0.4586528 -0.51876825 -0.786352 0.0012103467 0.35212073 0.69763464 0.0033231934 0.21708907 0.21154702 -0.1994127 0.5975942 -0.5326162 0.065994814 -0.008775113 -0.036925424 0.29372972 -0.6472521 -0.22744662 0.41946822 0.3928684 -0.2931345 -0.2892404 -0.098424464 -0.4144017 -0.027812235 -0.45059514 -0.05234402 0.2585078 -0.20420532 -0.47059193 0.39964843 0.16472095 0.31692463 0.10517263 0.008740426 -0.3584605 -0.2947629 -0.08218961 -0.41360268 0.12984678 0.05854197 0.18436836 0.13790688 -0.079213336 -0.3060965 0.27682173 -0.05575639 -0.11872226 0.21715884 -0.26065764 0.17581032 -0.56636494 0.30697444 0.072436735 0.957349 -0.054382123 0.03584972 0.24779682 0.14829539 0.040571995 0.06994979 -0.07284437 -0.028989505 -0.20590653 0.13841863 -0.022737907 0.28376952 -0.21907789 -0.038061786 0.246014 0.18928249 0.2123173 0.3145045 0.26394695 0.23104705 0.11211165 -0.3744598 0.621286 0.13817437 0.34110895 -0.3149013 -0.074823655 -0.207143
...... -0.17607583 0.159492 0.10558557 0.15921287 0.110685736 -0.30549863 0.123745196 0.3617575 -0.5039966 -0.2597897 -0.03413561 -0.53311795 0.14414547 0.1705643 0.40146515 0.016232383 0.5218423 -0.2915039 -0.3608 -0.59866863 0.15690492 0.08593957 0.29294357 -0.21656495 0.21286593 0.25337136 -0.27941585 0.3194569 -0.066797175 0.14875413 0.19799517 -0.07573554 -0.014714934 -0.43387875 -0.095699616 0.24766485 0.24916537 -0.1449653 -0.13819814 0.12064433 -0.0792561 -0.15281038 -0.010888032 0.10327769 0.22207844 0.24808942 -0.30074292 0.082569055 -0.02838261 0.20208767 -0.06908977 -0.27078936 -0.276137 -0.11355587 -0.08518465 -0.15063895 0.18480007 0.22147202 0.15638661 0.30677795 0.009836746 -0.30403894 0.25275323 0.18921506 -0.041808337 0.378059 0.058295336 0.35401103 -0.33381635 0.19840734 0.011060784 0.33363813 0.27684045 -0.007472914 -0.0004360558 0.023766141 0.04427343 0.042011216 0.024675975 -0.13467477 -0.46226725 -0.11347291 -0.19170813 0.22851066 0.031745475 -0.22984865 0.22320014 -0.019992407 0.47999808 -0.13837565 0.065086715 0.33851764 0.006108051 -0.05332719 0.4303447 0.3105741 0.19109434 -0.13707379 0.03466735 -0.08900729
♥ -0.42828533 -0.6300478 -0.23799534 -0.2996307 0.56618345 0.035405744 -0.6137819 -0.14133647 -0.7075832 0.07866487 -0.28601488 -0.16039635 0.03101392 0.6927526 0.23414002 -0.25471082 0.78329307 -0.91485107 -0.5953332 -1.1026468 0.121477775 0.109393254 -0.21210796 0.25458413 0.9502622 0.53311336 -0.27370265 0.46376812 0.33292967 -0.26143855 -0.14884935 0.8908972 -0.44453472 0.040772513 0.4405872 -0.026663195 0.058099568 -0.85407025 0.29034323 0.2734992 -0.480295 -0.36309135 0.78772235 -0.22085042 0.1094948 0.4160098 -0.94711214 0.8016262 0.00040196485 -0.1221177 0.046623003 -0.04706092 -0.6486268 0.5984253 -0.04966011 -0.77316976 0.4517375 0.2305593 0.8006297 -0.023100236 0.039964896 -0.45516083 0.6852361 0.9120054 0.08343139 0.048183277 -0.40703022 -0.12160322 -0.7241482 0.27254432 -0.0022189522 0.9690448 -0.68877155 -0.5878165 -0.50783175 -0.88038045 0.27087787 0.32331458 0.45407748 0.35422868 -0.3150828 -0.33574826 -0.6860981 0.477042 0.1766448 0.31462777 -0.081354044 0.5567631 0.45750514 0.17011648 -0.113037884 0.79890436 0.11645277 0.5614264 -0.057818934 0.30455285 0.4519136 -0.6006583 -0.35477555 0.2650108
" -0.4682525 0.39837283 0.21447563 0.9057568 -0.2830547 -0.4049943 0.9099664 0.5798863 -0.12619957 -0.022017477 0.22309399 -0.733226 0.21522012 -1.089932 0.1685849 -1.0693061 0.25425196 -0.99793786 0.19599086 -0.8110036 1.0440514 -0.5008978 0.029755322 0.24996352 0.00018109119 0.27005282 -0.31267077 0.39740968 -0.9998885 -1.3415793 0.5342458 0.23500437 0.71810675 -0.88998663 0.44610357 -0.70129573 1.0967526 0.53097343 -0.64965695 1.0691626 -0.70505685 -0.8654876 0.09570456 0.15587448 -0.6600149 -0.69617766 0.8453874 0.6565832 0.12185439 0.35219553 -0.40472347 0.061901 -0.27272418 1.029393 -0.48748806 -0.12125003 0.7498528 -0.52890754 -0.80572844 1.0619248 0.6273413 -0.22085154 0.7955725 -0.30422172 -0.43942758 -0.22021173 -0.55760384 0.9931339 -0.09758756 -1.052046 0.27198827 -0.04833968 0.72035533 0.1780779 0.69860303 0.22799678 -0.5049024 1.0977404 0.124783866 -0.72696674 -0.5416583 0.046587147 -0.45444867 0.6326706 -0.9892006 -0.6809438 0.4727996 0.001033527 0.4189575 -0.29970804 0.052782055 0.47652555 0.5701689 0.18203892 1.4569566 0.36995134 -0.5729214 -0.59229964 -1.0542477 -0.7306904
8 -0.27607673 0.22826354 0.40476283 0.1697881 -0.15315436 -0.702095 0.25095809 0.5943355 -0.36232007 -0.39531237 0.3302055 -0.6716735 0.14558974 0.25299218 0.24256152 -0.33506718 0.46274933 -0.4310071 -0.4708291 -0.81528974 -0.010664467 0.32666194 0.6784402 -0.096143596 0.15703075 0.22050886 -0.24995801 0.6127014 -0.65426147 0.08116158 0.0075349784 -0.079158686 0.41476992 -0.7260126 -0.27752978 0.39822015 0.37612963 -0.24798152 -0.3172978 -0.05134546 -0.39425984 -0.0027421846 -0.5639461 0.015969465 0.26538292 -0.28853616 -0.43341285 0.3945194 0.14929704 0.37079415 0.15100554 0.050443433 -0.31177998 -0.3217366 -0.120082416 -0.32878095 0.06846034 0.11254477 0.12930927 0.26605278 -0.083575614 -0.30863157 0.20832437 -0.17399551 -0.1242701 0.2447868 -0.22728787 0.18625313 -0.44217977 0.30194083 0.009525651 0.9537368 -0.02713578 0.035234075 0.35033107 0.32832953 0.047105435 0.0144546 -0.014035196 -0.022977697 -0.2708702 0.18413812 -0.04463016 0.27664796 -0.34209695 -0.0706988 0.2979824 0.08580965 0.30105916 0.39448538 0.21266143 0.24312149 0.12054739 -0.4254231 0.7400446 0.11808354 0.33744943 -0.22807923 -0.13602288 -0.29685357
OOO -0.13028626 0.16016065 0.1499969 0.2519335 -0.00054191775 -0.48338035 0.048413884 0.57798195 -0.31210393 -0.40138045 0.20597151 -0.39363775 -0.02613704 0.18333976 0.288878 -0.054587584 0.21568476 -0.441499 -0.3590726 -0.7156192 0.05599182 0.27123836 0.34740046 0.068073064 0.19575629 0.12213111 -0.2960234 0.3848486 -0.08132254 0.0035309838 -0.025172347 -0.08518989 0.24826942 -0.36439177 0.04419865 0.3367463 0.3901151 -0.2461958 -0.106375605 0.022407949 -0.15907452 -0.20408309 -0.35836542 -0.010747217 0.13702837 -0.074788794 -0.38361067 0.3621437 0.07702591 0.26423964 0.16760843 -0.23615752 -0.3157173 -0.017270174 0.09659612 -0.17338233 0.19385727 0.024817433 0.16990308 0.15801963 -0.22797018 -0.14873515 0.36031905 -0.029829636 -0.054847844 0.31777126 0.011801255 0.27014908 -0.52240765 0.18519944 -0.038288232 0.5715461 -0.024511427 -0.060368154 0.045452442 0.1113808 -0.06502084 0.018314682 0.012861825 -0.021970782 -0.3240235 0.04600939 0.06383754 0.2306496 -0.06773941 0.11401231 0.24862698 0.07887554 0.35143763 0.37681374 0.053754397 0.23290934 0.050891206 -0.03220142 0.57164884 0.04866216 0.18731934 -0.12700228 -0.09179659 -0.0008089335
20 -0.29856676 0.17007661 0.12995793 0.2760275 0.03763558 -0.42651263 0.2925707 0.5145813 -0.37497044 -0.41782054 0.27843466 -0.30874422 0.08275488 0.13619372 0.30390078 -0.2682446 0.38563225 -0.38572678 -0.47440037 -0.5587798 0.10238462 0.24143757 0.41301483 0.081573986 0.1761287 0.01315179 -0.13457592 0.39758086 -0.47433257 -0.061380655 0.08858038 -0.12120042 0.20425107 -0.42750484 -0.047185227 0.31435275 0.30391988 -0.10921656 -0.17559823 0.14538297 -0.28105038 -0.09412533 -0.32884055 0.0918167 0.12921725 -0.11931239 -0.29371327 0.30745983 0.14179203 0.29026935 0.09572636 -0.15947835 -0.39175978 -0.06573343 -0.12486295 -0.16969465 0.3013226 0.07197371 -0.035641093 0.07680891 -0.039052397 0.010970989 0.39152536 -0.16192338 -0.197943 0.30761746 -0.15601157 0.104846224 -0.30886337 -0.09559801 0.18800913 0.50768286 -0.034503486 0.054627474 0.2314412 0.10630099 -0.025698712 0.19930623 -0.15727457 -0.083591916 -0.2756399 0.18564008 -0.07885187 0.20150645 -0.18664683 0.043122932 0.37611586 0.042613838 0.11357576 0.17469557 0.03141355 0.29463544 0.13802814 -0.023153609 0.66627717 0.11294595 0.19944549 -0.4004059 -0.23808765 -0.19822499
!!!! -0.19400278 -0.19047941 -0.18517108 -0.21666454 0.17434788 -0.14630097 -0.26277292 0.25150087 -0.24043076 -0.2176435 0.051687703 -0.32960254 -0.055814818 0.18513508 0.034638993 -0.08336319 0.41063336 -0.6505694 -0.29059607 -0.5839323 0.21497807 0.3139547 0.024087815 0.31089163 0.33224213 0.1834431 -0.08130608 0.091724455 0.26573083 -0.18524058 -0.09402593 0.27564406 -0.054430313 -0.06954669 0.109915145 0.14105436 0.22317453 -0.30044955 0.05121133 0.13079065 -0.11419964 -0.15578245 0.344704 -0.16782168 0.14840008 0.34121928 -0.62848043 0.43572628 0.0009829673 0.051434685 0.025021775 -0.11273391 -0.25148204 0.2227512 -0.013775365 -0.4241826 0.36420304 0.035609692 0.43758893 -0.024197934 -0.035450846 -0.16012982 0.52757543 0.36425012 -0.052300487 0.11399106 -0.22977656 0.08379498 -0.52892697 -0.041313384 0.13220257 0.550229 -0.15911332 -0.29889145 -0.10788683 -0.34415972 0.21451898 0.07211815 0.07201764 0.18226987 -0.2571394 -0.272007 -0.18384184 0.29512843 0.12896413 0.10838943 -0.09465447 0.36658898 0.2731757 0.06938646 0.046597138 0.46295306 0.14938657 0.3742915 0.16400641 0.18922423 0.058002017 -0.25622907 -0.1836312 0.3111627
'' -0.18660161 0.14136843 0.06367284 0.5800199 0.05810898 -0.21733332 0.33534133 0.46778968 -0.22472887 -0.43809304 0.5508507 -0.07752821 0.28474978 0.118995115 0.37531573 -0.5368061 0.14770977 -0.25795138 -0.75702816 -0.5022205 0.26281083 0.33687335 0.123448655 0.4227149 0.06668717 -0.3407159 0.27558133 0.4689599 -0.8029571 -0.3339687 0.05302057 -0.3240155 0.17583334 -0.34858525 0.10074329 0.18542922 0.37084043 0.012855236 -0.29271016 0.3164945 -0.27514294 -0.10335223 -0.508388 0.24036199 0.21962182 -0.31657982 -0.5047015 0.2336338 0.39669004 0.3754417 0.33497286 -0.098867066 -0.5481532 -0.2894771 -0.18410875 -0.031000791 0.43161076 -0.12998617 -0.4059082 -0.17171755 0.017664034 0.32088783 0.5736631 -0.57201463 -0.44851136 0.4832031 -0.23685026 0.11403659 -0.16905838 -0.51682055 0.3410223 0.42772716 -0.18477559 0.053202778 0.29225942 0.43858218 0.3401694 0.38882637 -0.4295013 -0.12043878 -0.49363986 0.1597683 -0.25924593 0.21560492 -0.5447404 0.23255196 0.52154875 -0.026031593 0.038004614 0.4000014 -0.31093392 0.5007531 0.27999052 0.30205074 0.97297585 -0.011282833 0.16702612 -0.43506342 -0.4784623 -0.37794593
9 -0.253947 0.24378948 0.3416155 0.09121723 -0.15748139 -0.66974586 0.27743834 0.5994301 -0.3109664 -0.3632742 0.30622718 -0.6633306 0.13615464 0.17023735 0.22111373 -0.27837536 0.4382385 -0.5069971 -0.4405439 -0.7636223 -0.03201207 0.32677323 0.6460676 -0.08431887 0.12980725 0.20348449 -0.29352006 0.5071587 -0.4996789 0.03730777 -0.03317603 -0.04228816 0.39894027 -0.6540616 -0.28007543 0.45330608 0.39645976 -0.2143737 -0.32631394 -0.07856371 -0.41788706 -0.0017963577 -0.43468827 -0.04751533 0.21558702 -0.2721198 -0.33037168 0.42274886 0.10810394 0.38560832 0.11494588 0.011525067 -0.3210209 -0.2675382 -0.10059595 -0.34031773 0.13133582 0.107562825 0.18166606 0.21832907 -0.107373044 -0.3141226 0.24696958 -0.13248768 -0.12028121 0.19056071 -0.2455975 0.15262933 -0.52101713 0.24407928 0.042835224 0.8903978 -0.0027811683 0.051699467 0.28391266 0.25121993 -0.00425061 -0.02509091 -0.023967324 0.051899597 -0.19202209 0.20276093 -0.02635617 0.2756191 -0.19857238 -0.056268368 0.19550043 0.20783524 0.2890832 0.38244987 0.2287786 0.23229773 0.07925178 -0.40089637 0.68171453 0.10854472 0.31040567 -0.20308888 -0.121121734 -0.29165232
( -0.10797409 -0.22874494 0.76345974 -0.58692414 0.018813493 -0.51188457 1.1099367 0.6104619 -0.18377502 -0.66774374 0.16020343 -0.5213991 -0.05943988 -0.26790673 0.20428762 -0.07329243 0.48685706 0.31195882 -0.5375764 -0.95217586 -0.73798823 0.82239425 0.76578635 -0.46112767 0.5843602 0.73798907 -0.25079557 0.20061569 -1.37183 -0.15123086 -0.33512896 0.1800389 0.6910139 -1.2336589 -1.1512986 0.30865562 -0.37964463 -1.0672573 -1.2239615 -0.26778555 -0.61092365 0.10966712 -0.14318027 0.6090151 0.90249705 -0.7803686 0.7098591 -0.75672495 -0.042233974 0.65085757 -0.044267833 -0.3229159 -0.27287382 -0.044724315 -1.2414403 -0.98357105 -0.35035 0.32687333 -0.38344634 -0.38582724 0.7879261 -0.07517397 0.75340974 0.35662267 -0.6376611 0.5924665 -1.0962385 -0.4946885 -1.1674407 0.05991458 -0.289098 1.438953 0.4546662 -0.38322407 0.5248057 0.5736991 -0.5541602 0.5873022 -1.0075227 0.5013665 0.544592 0.29936033 -1.1580484 -0.1061334 -0.14788447 0.27079418 0.8900036 -0.17179011 -0.87622535 -0.5192951 0.041978765 0.38092703 0.07884792 -0.2770188 1.1032922 0.039447803 0.64947987 -0.36993325 -0.52579117 -0.6783272
~~~ -0.076480374 -0.21467184 -0.1471904 -0.08667512 0.21340172 -0.027064623 -0.17442752 0.08132189 -0.38080016 -0.16437612 -0.05821255 -0.2948298 -0.1696809 0.49311244 0.10158328 0.08441221 0.3927538 -0.1328059 -0.30709472 -0.5915116 0.31122074 0.1811215 0.2109241 0.21526472 0.5466096 0.4044059 -0.06854145 -0.0034298114 0.12945637 -0.0051975646 0.08970333 0.22462393 -0.11727359 -0.086764894 0.17145287 0.26731607 0.17895964 -0.24987814 -0.05257918 -0.0270295 -0.020751113 -0.3649401 0.279786 0.029293405 0.2681839 0.3910627 -0.7397119 0.06710617 0.13145553 -0.050990332 -0.027521737 -0.29928097 -0.30131796 0.12771833 -0.070329465 -0.36392948 0.17813946 -0.08660175 0.14492317 -0.116580516 0.0056016766 -0.13284573 0.46747696 0.38655585 -0.017190324 0.27862427 -0.2079313 0.19826373 -0.35638964 0.1977581 0.08141095 0.51199156 -0.19197713 -0.09550371 0.01634663 -0.31123865 0.23654047 0.19786485 0.17470771 0.08172204 -0.20485644 -0.46735516 -0.21579093 0.08585885 0.023657033 0.024444066 0.12298561 0.019798297 0.12821507 -0.08400854 0.06632482 0.44541475 0.0825707 0.27215406 0.024706338 0.3370959 0.23038614 -0.30386272 -0.23680496 0.27667853
,,, 0.1633295 0.13182548 -0.4740184 -0.15781789 0.2636195 -0.45129648 0.26167622 0.7099901 -0.8634353 -0.5315388 0.187713 -0.79196537 0.0546214 0.46895584 0.6918331 -0.36390263 0.70054525 -0.23717451 -0.10507828 0.047405418 0.44221276 0.15877305 0.6171387 0.23975912 -0.0036894055 0.12762241 -0.5904038 0.4116979 0.27873996 -0.5013859 0.31966424 -0.28656685 -0.1502061 0.0035270643 -0.0013904439 0.3365978 0.5769497 -0.05097624 -0.32174805 -0.4175542 -0.65006566 -0.22322166 0.50951236 0.4739839 0.09887753 0.30267113 -0.3727989 -0.058255713 0.29597053 0.05488514 -0.39655408 -0.38791752 -0.27222186 -0.14634924 0.27236724 -0.06381551 0.174144 -0.10292923 0.36682418 -0.3636859 0.28956807 0.3804002 0.52862614 0.5402266 -0.4913261 0.65421844 0.0640701 0.67399067 -0.7851448 0.2665272 0.48767874 0.12251698 0.4911302 0.23606859 0.2531511 0.26350152 -0.18820748 0.7056692 -0.8979522 -0.5540461 -0.5660784 -0.12281764 -0.24293776 0.53725606 0.5401831 0.21119073 0.19054231 0.301974 -0.12513287 -0.5421485 0.3654997 -0.08401867 -0.11648561 0.38475066 0.907328 0.37228325 0.2350361 -0.3900117 0.15044318 -0.33121789
6 -0.31016666 0.22715248 0.28197488 0.039459344 0.03376053 -0.5609932 0.23853083 0.541674 -0.40838522 -0.30118003 0.21860737 -0.48411378 0.11076027 0.21530123 0.2371515 -0.34242058 0.52733046 -0.50539994 -0.48526022 -0.8038777 0.113983355 0.2064762 0.65095997 -0.064220555 0.0967806 0.22545204 -0.19081888 0.55203444 -0.46411556 0.07368534 0.08017001 0.025776207 0.20709692 -0.5780652 -0.13161817 0.30025846 0.27839857 -0.3436944 -0.29782546 -0.0400415 -0.3448356 0.0075317156 -0.24960756 -0.06026038 0.23870136 -0.15380782 -0.34817216 0.28318843 0.12390698 0.2955192 0.07197254 0.020199554 -0.3739823 -0.2770462 -0.10867556 -0.33095026 0.11511385 0.16071893 0.12234477 0.18974446 -0.02244767 -0.2988266 0.19972122 -0.022199312 -0.08262085 0.2182582 -0.1335921 0.25538883 -0.5132728 0.20916738 0.042283442 0.7895759 0.0009800198 0.018092867 0.17128791 0.07956951 0.11061161 0.10855098 -0.036619782 0.009217247 -0.26480925 0.19495106 -0.13944614 0.38933098 -0.19171931 -0.092833616 0.3004572 0.18058115 0.2674858 0.21895719 0.1957788 0.18323275 0.106297635 -0.37630248 0.5567459 0.15614167 0.35791686 -0.3033774 -0.061341427 -0.20614761
) -0.7481974 1.0229658 0.18963026 -0.563414 0.73307306 -0.68090314 0.40600103 0.57693833 -0.036260452 -0.66689384 0.26690784 -0.79009235 1.0704161 0.60252905 0.377621 -0.89645934 0.49772233 -0.3231083 -1.0204073 -0.9499615 -0.26421744 0.5496316 -0.24524471 -0.20383726 0.72556156 -0.35242462 0.60391784 0.6061523 -1.0274354 -0.64026874 -0.019450117 0.25140354 -0.37810966 -0.8780643 -0.64485097 0.7492852 0.41408604 0.119285405 -0.39101234 -0.5694962 -0.544404 -0.010330594 0.051277973 -0.5579573 -0.30573913 -0.78001946 0.12132623 -0.018462865 0.12556294 0.6599894 0.51126695 -0.037249327 -0.5144041 -0.3189928 -0.78319305 -0.82187617 0.98191476 -0.29005337 -0.810126 0.30169398 0.76981294 -0.077107154 0.7851732 -0.2853955 -0.5775887 -0.440888 -0.9144205 -0.5954421 -0.8786054 0.6332018 0.8854301 0.5798055 -0.107534416 0.74639446 0.30572572 -0.18534146 0.09665867 0.39572197 -0.6276276 -0.38888785 0.59502596 0.81411535 -0.8003202 -0.32249504 -0.15567015 0.2832595 -0.3012896 0.8827126 -0.42195627 0.56216955 0.78962594 0.32497048 0.38437742 -0.2033518 0.12230525 0.1753855 0.12156565 -1.3182484 0.3229063 -0.9377745
??? -0.06117507 0.024045648 -0.046379253 0.007661231 0.06020485 -0.33805478 0.032377955 0.36213535 -0.460385 -0.10128722 -0.017102096 -0.4680597 -0.08042997 0.30865875 0.12500158 -0.059639618 0.36567432 -0.2206726 -0.24373446 -0.56820184 0.20683192 0.1421651 0.30985707 0.041662037 0.22749513 0.19366553 -0.18732049 0.25158843 -0.085426524 -0.053885855 0.1669986 0.009016726 0.09957893 -0.2517241 0.0055535333 0.22131227 0.34100533 -0.10497341 -0.08502249 -0.017901232 -0.14049104 -0.28824475 -0.054106373 0.12233467 0.21434551 0.16382025 -0.54251534 0.23308697 0.15691367 0.07479508 -0.03441636 -0.05586668 -0.16547923 -0.006522955 0.022168467 -0.19392067 0.13322374 -0.08553781 0.17812736 0.06143886 0.024444956 -0.24903268 0.20950627 0.1961633 -0.040274426 0.27929765 -0.09885747 0.2831496 -0.39107886 0.25522667 -0.059571847 0.46006644 0.037734266 -0.063817486 0.17386845 0.02386947 0.102497466 0.14334431 0.061451707 -0.09954446 -0.2873672 -0.2158403 -0.114860766 0.21943769 -0.09317437 -0.05901037 0.07131984 0.09724801 0.33388263 -0.014628839 0.15309745 0.2654411 0.10502556 -0.019236332 0.3449824 0.21992888 0.14911075 -0.10400956 -0.04857434 -0.015832296
B -0.32341757 0.13217737 -0.036285035 0.044478986 0.09955848 -0.31097692 0.2526351 0.70845884 -0.19051674 -0.4314862 0.41254747 -0.36550274 0.24161473 -0.09909223 0.20200229 -0.4661687 0.29784343 -0.5454698 -0.26781356 -0.47337505 -0.033249132 0.12887643 0.22920187 0.21926472 -0.22705345 -0.21947604 -0.12244687 0.3075824 -0.17591164 -0.46933943 0.018476043 -0.06335855 0.12428298 -0.37647927 -0.09003804 0.021005323 0.23803204 -0.32987535 -0.38458246 0.012470517 -0.29587606 0.032029796 -0.32104588 0.068191394 0.12533782 -0.32590076 0.02196909 0.20949559 -0.14963078 0.2669883 0.14321767 -0.1654776 -0.37779748 -0.006198559 -0.20792887 -0.088689335 0.27936113 -0.13513327 -0.015073965 0.10407101 0.15208624 0.075817324 0.66488117 -0.21434611 -0.34251392 0.18565239 0.065381855 0.14533193 -0.40015137 -0.33645895 0.32322696 0.26604912 0.13295497 0.1457465 0.10551716 0.20518494 -0.0205592 0.24706586 -0.4721293 -0.10981254 -0.3784463 0.40503567 -0.15998998 0.36857897 0.000667053 0.12920865 0.43654296 0.370002 0.017665174 0.30442432 0.054523434 0.26663476 -0.031355996 0.22681224 0.96287924 0.20172918 0.20540173 -0.37471613 -0.13055131 -0.2576977
~! -0.257638 -0.1258403 -0.16057552 -0.03867612 0.056262475 0.023196066 0.015450292 0.11227289 -0.2043835 -0.37021953 0.16465333 -0.020478318 -0.14760253 0.06505814 0.04909839 -0.08833695 0.32134095 -0.38830072 -0.331626 -0.41249952 0.08557444 0.28880802 0.17413944 0.52166 0.41060495 0.16241434 -0.035914287 -0.048032656 0.05637393 -0.2378998 -0.046608992 0.20584463 -0.19299847 0.07097336 0.20999917 0.3077893 0.25761658 -0.3067822 -0.01718373 -0.016832735 -0.04092382 -0.315573 0.13307515 -0.12135335 0.2916034 0.21344122 -0.6342728 0.21083872 0.054199312 -0.080778986 0.048193 -0.36161855 -0.39906743 0.094489805 -0.19756344 -0.3669245 0.2755689 -0.24662429 0.14892656 -0.32940522 0.07562999 0.07558466 0.7604582 0.063809186 -0.1211933 0.18133846 -0.2396342 0.17041303 -0.29083362 -0.3528217 0.203852 0.61511725 -0.2855285 0.01443945 0.13788895 -0.17692262 0.057078604 0.21721719 -0.030776128 0.1611895 -0.02409567 -0.37328812 -0.12476578 0.28158325 -0.03657404 0.015019605 0.21405114 0.10188783 -0.12992243 0.0072937193 -0.04972031 0.58334476 0.011613859 0.37684432 0.40757954 0.2092515 0.23494281 -0.3831161 -0.38461658 0.14963748
CG -0.2146915 0.26776075 0.07104809 0.1278175 0.14645465 -0.48146132 0.35051283 0.6523776 -0.41545337 -0.480759 0.30291858 -0.40131372 0.16654953 0.116642766 0.4750116 -0.30178258 0.41773126 -0.32877123 -0.43407878 -0.44837224 0.1463333 0.14485016 0.41242263 0.09813569 -0.0040317373 -0.021891471 -0.13893653 0.4247103 -0.30539954 -0.16386402 0.15139815 -0.18855506 0.07200761 -0.39660177 -0.024972832 0.24751848 0.37502125 -0.18224005 -0.26656073 0.10337755 -0.27404273 -0.04567417 -0.11996387 0.14467104 0.21325955 -0.007740364 -0.2063386 0.16609861 0.095059276 0.24184726 0.040166106 -0.19161887 -0.37819222 -0.24638358 -0.05416818 -0.116858326 0.25879565 0.13178481 0.04671347 0.113716096 0.061498564 0.041381285 0.3943404 -0.040761296 -0.15447848 0.3491259 0.006345803 0.3418264 -0.3910349 -0.09084587 0.24199809 0.2916656 0.21110678 0.15536682 0.19087875 0.22207558 0.0082950555 0.2695369 -0.32319146 -0.20069951 -0.39848056 0.20597209 -0.12772913 0.31392494 -0.005487324 0.046975043 0.46857643 0.07635462 0.15796244 -0.002021505 0.046901435 0.21586779 0.0460896 0.033092294 0.8289394 0.19645734 0.24543495 -0.37140685 -0.05774925 -0.3214727
30 -0.2188521 0.25535914 0.081046924 0.13133718 0.14661238 -0.46405855 0.20757475 0.53313214 -0.42546752 -0.4362819 0.23516263 -0.40681273 0.117281936 0.26116323 0.44401097 -0.23333745 0.4255826 -0.30278042 -0.42876515 -0.5055189 0.070447266 0.1946626 0.3855357 0.020343812 0.16762741 0.06370366 -0.20792098 0.40403643 -0.28214952 -0.08461565 0.1347692 -0.13135585 0.046667155 -0.3535932 -0.03530382 0.30461964 0.31856635 -0.17989483 -0.14073211 -0.05591982 -0.2978026 -0.044763617 -0.16443807 0.08672662 0.14471489 0.007454458 -0.31602186 0.2083334 0.12018289 0.24134368 0.08243072 -0.19434637 -0.3490564 -0.17156906 -0.010707183 -0.1786503 0.22709094 0.1384379 0.08717893 0.05698865 -0.038525768 0.026515435 0.32050186 0.0028662044 -0.13538042 0.33104855 -0.05282622 0.20956987 -0.39511767 0.08859531 0.18274724 0.4575333 0.047960375 0.12277257 0.15614453 0.12544678 -0.029711574 0.1965881 -0.22816859 -0.15515989 -0.32107553 0.16003169 -0.08410253 0.22144344 -0.009166043 0.083528735 0.33144823 0.047896616 0.13325225 0.086405754 0.104589745 0.20226909 0.07162702 -0.0010368191 0.627769 0.17740259 0.2728122 -0.3365576 -0.055944838 -0.216947
....... -0.12957934 0.110669844 0.044455547 0.12981714 0.108807534 -0.1818462 0.07648087 0.27197826 -0.40159246 -0.14275087 -0.10981378 -0.40335009 0.13336158 0.09814513 0.27007222 -0.00822949 0.33764803 -0.23626763 -0.23799208 -0.51789397 0.10365364 0.09121315 0.14823364 -0.13200606 0.15492277 0.15267749 -0.2555621 0.18819746 -0.054028973 0.08232502 0.15448844 -0.033712957 -0.023302974 -0.28151652 -0.07181337 0.23012254 0.15600859 -0.078580976 -0.10630344 0.06014958 -0.0061863526 -0.2150725 -0.03960752 0.13992004 0.1339317 0.097335495 -0.2332502 0.011736691 -0.0042592934 0.1572081 0.012912385 -0.24512437 -0.17603809 -0.01900732 -0.11290852 -0.075359106 0.17646359 0.113435686 0.034463808 0.15240557 0.036560357 -0.22047539 0.22842881 0.1182398 -0.09755647 0.34026527 0.048329495 0.20321329 -0.3243865 0.14375472 -0.054654974 0.29665652 0.16130853 -0.065546505 0.01666674 0.04569349 0.034400232 0.0631128 0.011553774 -0.013976825 -0.34950197 -0.11127495 -0.19245853 0.16477072 0.002990808 -0.114707075 0.10471509 0.086905986 0.4010627 -0.037168477 0.05917659 0.27650368 -0.0060860445 -0.0027842622 0.33333555 0.19963726 0.16967674 -0.061399717 -0.016269593 -0.07634343
;;; -0.2050729 0.30495405 0.028389605 -0.015626429 0.1077723 -0.510295 0.11086967 0.43438566 -0.6913154 -0.24189205 -0.2691182 -0.5497053 0.10227097 0.29094613 0.4788529 0.04605507 0.40062758 -0.14244352 -0.18863942 -0.74788505 0.05211585 0.031017877 0.20183478 -0.2077659 0.12891437 0.11785714 -0.5447556 0.12512964 0.021703068 0.10658248 0.44784442 -0.04347132 -0.10200877 -0.2614723 0.0063927453 0.39402205 0.16185904 0.010945877 0.072675735 -0.118718095 0.13924 -0.4080289 -0.107046336 0.25647244 0.26301178 0.123471625 -0.3641425 0.0020759183 0.08617012 0.14288977 0.22380725 -0.2758788 -0.08158919 -0.09689854 0.096354604 0.076767065 0.21843164 0.2558153 0.079797894 0.108542174 -0.041220713 -0.22845784 0.15377447 0.2188091 -0.0015653274 0.46680564 0.22705647 0.209453 -0.3241424 0.41575935 -0.19925988 0.25271145 0.24542822 0.084985435 0.1746246 0.2731324 -0.04595477 0.067376465 0.09612821 0.12440165 -0.38621384 -0.085654266 -0.15715767 0.30099198 0.18796626 -0.01825295 0.18291338 0.16992426 0.61826754 0.03711784 0.24575551 0.3058511 0.010959275 -0.11388639 0.49973217 0.34679997 0.43118212 0.06183842 0.01623326 -0.26444116
+ -0.2247734 0.3367619 0.25244844 -0.120708145 -0.22389351 -0.77129245 0.27470616 1.1693529 0.07754675 -0.40583354 0.15972443 -0.6461308 0.074653514 -0.15985537 0.39606345 -0.5078391 0.09674808 -1.1162918 -0.56250745 -0.6780728 -0.19950448 0.53175926 0.58887756 -0.23767704 -0.22399172 -0.0065647042 -0.80538464 0.086566806 0.18656628 -0.6666697 -0.2981175 0.20064189 0.2587124 -0.5797819 -0.3672896 0.274857 0.13874389 -0.48391718 -0.59265566 -0.59402615 -0.77946544 0.116129614 -0.059411578 -0.19719863 0.12860003 -0.46175778 0.20082992 0.30227664 -0.15689902 0.70658207 0.3996428 -0.1727478 -0.3107796 -0.2280032 -0.22883834 -0.27688122 0.19715266 -0.07592664 0.19473466 0.24084182 0.22543295 -0.17174602 0.7231854 -0.30443558 -0.2063235 0.07964743 -0.046696648 0.07453698 -0.89155835 0.26360807 0.08915052 0.47212654 0.078788325 -0.09544199 -0.100700855 0.4273576 -0.15863235 -0.09892625 -0.31200847 0.14970385 -0.121841885 0.7629303 -0.55409294 0.33246675 0.45765045 0.33595234 0.20018117 0.88948977 0.018789241 0.90700686 0.45542532 -0.06959592 -0.2118295 -0.36833495 0.9236419 0.22286467 0.27207902 -0.15706956 -0.15930845 -0.6348355
TV -0.27353433 0.15954597 0.062269695 0.13177624 0.11885093 -0.32173875 0.23262449 0.42373902 -0.29073268 -0.35933015 0.2503741 -0.3198787 0.10238906 0.030454626 0.31220886 -0.24032713 0.37881064 -0.35444137 -0.39423794 -0.46390808 0.16695991 0.097158425 0.23105785 0.08685125 0.1468017 0.07096073 -0.042756643 0.31297398 -0.26020956 -0.15295608 0.11360852 -0.05538227 0.052883655 -0.36090872 0.037965715 0.13969672 0.34422472 -0.11685156 -0.15772893 0.20698288 -0.16419649 -0.10653472 -0.0475157 0.02871787 0.111563355 0.031401057 -0.17808238 0.23229402 0.04676212 0.17610264 0.03443029 -0.1713495 -0.31820995 -0.0490686 -0.12607528 -0.20323455 0.3132056 0.10216774 0.039471548 0.18377529 0.05640561 -0.039835572 0.43430325 -0.031130264 -0.10590836 0.18761854 -0.09193184 0.25703013 -0.29471877 -0.17385045 0.19665389 0.30934027 0.112836346 0.101362735 0.118011825 0.035941195 0.002272963 0.22704838 -0.1396135 -0.13901329 -0.30274215 0.093474485 -0.1282721 0.21394771 -0.106345996 -0.053396497 0.32964018 0.012816135 0.1461441 -0.019614553 -0.0040372587 0.33330068 0.1364645 0.093541816 0.6052423 0.17802258 0.14091054 -0.32716438 -0.16257423 -0.1685869
90 -0.17765093 0.1361171 0.0627203 0.088660166 0.12895991 -0.3234259 0.2190092 0.44312498 -0.35425988 -0.35665277 0.20623322 -0.30539125 0.06394631 0.19609162 0.30508474 -0.1759452 0.35245034 -0.2330267 -0.4379773 -0.48926616 0.15151405 0.18218368 0.32707262 0.096634164 0.17703062 0.06894861 -0.064408936 0.28589308 -0.28355286 -0.10313161 0.078742936 -0.06801394 0.0571776 -0.33795083 -0.023681654 0.2465327 0.27430084 -0.16058148 -0.18644266 0.069274455 -0.18851773 -0.12673959 -0.08224147 0.09536168 0.22707102 0.020175394 -0.31162772 0.13283272 0.109811224 0.20785576 0.044500154 -0.16768749 -0.3436857 -0.12774116 -0.11556688 -0.20880869 0.233677 0.037389554 0.007477241 0.026442727 0.06493144 -0.0063979505 0.36825642 -0.01326051 -0.14480795 0.28630593 -0.11637763 0.21557407 -0.3195702 -0.025467405 0.16194691 0.3693267 0.037319947 0.06977493 0.16107391 0.07237665 0.055826973 0.23706087 -0.16663352 -0.09340827 -0.25127277 0.048700072 -0.17510337 0.19447623 -0.07788043 0.04860618 0.33716157 0.037597544 0.09883224 0.021045815 0.015026854 0.28050974 0.08686073 0.036633056 0.5706011 0.19751602 0.1983083 -0.35662672 -0.13929754 -0.15865268
100 -0.25540128 0.1647586 0.020338763 0.13096584 0.05183713 -0.29301435 0.3100839 0.44967896 -0.40547064 -0.13148 0.023002265 -0.32636625 0.1349791 -0.13402419 0.08962201 -0.3149819 0.36332974 -0.502772 -0.2146289 -0.6004516 0.2237705 0.12941083 0.37733382 0.030111186 -0.039464045 0.033944264 -0.2755065 0.32625297 -0.23048593 -0.11240088 0.14167993 0.06218582 0.20511557 -0.30298477 -0.0114968885 0.19003454 0.21870555 -0.11561158 -0.18351369 0.015778895 -0.23493014 -0.18662828 -0.061541267 0.06550037 0.028931765 -0.15649971 -0.044715714 0.18021719 0.09980839 0.18585311 0.014002142 -0.048139367 -0.24769126 0.030391222 -0.091894306 -0.12437496 0.18981667 -0.013010872 -0.033436142 0.0883193 0.10677274 -0.15147312 0.28515643 -0.010824711 -0.25391564 0.17105037 -0.03687419 0.20179386 -0.48518035 -0.034981992 0.0123284245 0.35057616 0.119539306 -0.020909125 0.09702672 0.031230606 -0.0179821 0.21237727 -0.13072133 0.020243095 -0.18713018 0.18772136 -0.18196069 0.37963027 -0.15241146 -0.12067097 0.09771257 0.26911512 0.21728446 0.044812944 0.1673215 0.11902701 0.106533386 -0.1144123 0.53448856 0.0072688116 0.16871896 -0.18462542 -0.09776579 -0.19343883
() -0.16004081 0.12307483 0.09428455 0.11287314 0.18752761 -0.30007702 0.4004426 0.5316099 -0.1813108 -0.20396802 0.15631792 -0.32226142 0.15257771 -0.035893515 0.29093406 -0.39874575 0.17200845 -0.3972386 -0.38834238 -0.47742024 0.088151686 0.26643005 0.19455445 0.14466111 -0.030797547 0.033366315 -0.11678428 0.2652271 -0.42462197 -0.44235283 0.09216824 0.13884322 0.1885138 -0.25302786 -0.15686479 0.13181174 0.22222424 -0.2820683 -0.4335824 -0.14341004 -0.4237941 -0.047252256 0.07175708 0.046900563 0.18682131 -0.24389185 -0.044407725 0.080371775 0.12135117 0.28924778 -0.057138253 -0.027687164 -0.26899374 -0.07510616 -0.34218264 -0.18319078 0.06551227 -0.15100819 -0.1280638 0.0031922632 0.38930437 0.024699759 0.30700344 -0.10043027 -0.35087296 0.10784018 -0.22613667 0.27627453 -0.62118435 -0.12532146 0.14568111 0.41258097 0.061568018 -0.030975344 0.19071029 0.19777972 0.076675504 0.37034756 -0.36118966 -0.080305114 -0.047166344 0.1436982 -0.47458243 0.3867286 -0.23795737 0.16811527 0.2561397 0.18441586 0.029182771 -0.014227254 -0.012143366 0.124328434 0.0995088 0.10412356 0.58542806 0.16176581 0.14516664 -0.37072718 -0.013839492 -0.3756597
tv -0.17346817 -0.045778282 -0.15058158 -0.25367814 0.10174591 -0.10181027 -0.07284558 0.24657117 -0.16859014 -0.19015035 0.010266345 -0.28001836 -0.024724491 -0.015602399 0.0011196705 -0.042862844 0.32847977 -0.45819017 -0.22782865 -0.45064744 0.10258802 0.24318841 0.044095863 0.22463948 0.16343407 0.05523565 0.009092638 -0.018775543 0.15293983 -0.1365076 -0.017905015 0.12456769 -0.06826707 -0.11014471 0.015509152 0.14114611 0.20044687 -0.101478405 -0.0038156684 0.13242185 0.041104324 -0.15029462 0.1933772 -0.07409743 0.1901558 0.2488415 -0.4389329 0.2521411 -0.017377058 0.03542038 0.1280339 -0.11388038 -0.118311696 0.10830543 -0.17891292 -0.31634074 0.32713622 -0.03622823 0.19862115 -0.027904307 0.036055196 -0.12991515 0.4393947 0.2152414 -0.019593002 0.10930492 -0.16955811 0.038947713 -0.4109738 -0.12599012 0.068530954 0.3871429 0.0016633401 -0.17120504 0.0027793264 -0.18095514 0.19132313 0.068292454 -0.003122029 0.1467596 -0.19965571 -0.22763744 -0.14893831 0.14647166 0.03518662 0.00023499773 -0.108660445 0.32506493 0.22296658 -0.020853976 0.11787298 0.41678 0.107524745 0.26682577 0.25887045 0.1431139 0.05602915 -0.15416244 -0.13274994 0.1786833
/ -0.36117044 0.26583385 0.19468775 -0.12256774 0.05446034 -0.41373688 0.5805358 0.57690954 -0.44472936 -0.08067075 -0.07852965 -0.41830647 0.22165973 -0.29712218 0.038842883 -0.5392443 0.30599275 -0.5469871 -0.09148272 -0.8254852 0.0815641 0.1267485 0.57505715 -0.15094236 -0.19029108 0.1926403 -0.33074385 0.13094698 -0.6203336 -0.15963346 0.13438082 0.34765813 0.342264 -0.47554725 -0.30124602 0.1151199 -0.058610193 -0.29140374 -0.52430063 -0.2488123 -0.26232737 -0.09844407 0.10236822 0.07960714 0.0846158 -0.53624564 0.3009678 -0.11087971 0.14457908 0.22275579 -0.17279603 -0.043743216 -0.12222345 0.016913768 -0.4227167 -0.39836797 0.09293547 0.0110132275 -0.2830881 0.082458824 0.52878624 -0.22219543 0.3364688 0.028747363 -0.40165976 0.16409515 -0.23871636 -0.040717866 -0.8712449 -0.085917 -0.22275095 0.6368478 0.24309866 -0.17294703 0.291141 0.17701326 -0.11184096 0.3870145 -0.27471864 0.24112456 0.20992588 0.33827314 -0.6185228 0.42874336 -0.34562135 -0.16940826 0.14003593 0.49056512 0.19465527 -0.0049185883 0.2679767 0.16470356 -0.09512165 -0.4156257 0.6257452 -0.027298998 0.29805014 -0.34201562 -0.050754663 -0.44168574
good 0.033223845 -0.2524174 -0.5476427 -0.11918273 0.10505731 0.12656663 -0.15388857 0.21867476 -0.3016886 -0.16993253 -0.4243541 -0.3381185 -0.023730041 0.019574944 0.06953242 0.073301345 0.17292726 -0.34772357 -0.04219844 -0.7351486 0.23584276 0.33670893 -0.28794333 0.52121025 0.37944734 0.30269983 -0.4403113 -0.4594888 0.19818102 -0.3095907 0.2617123 0.14630073 -0.25124133 0.18022661 0.11397594 0.33566996 0.17249799 0.0035042134 -0.10338318 -0.10949137 0.08953601 -0.5990433 0.2844243 0.06630962 0.34293762 0.18364039 -0.92193395 -0.13319822 0.073437616 -0.073528185 0.23272018 -0.5178448 -0.029376479 0.38007763 -0.29684728 -0.28183874 0.50230193 -0.32430205 -0.09979895 -0.40041983 0.21734917 -0.04225824 0.8065816 0.07442729 -0.35437337 0.2762669 -0.11822525 -0.19635846 -0.4832101 -0.2955308 -0.19022653 0.5487414 -0.36183742 -0.3629047 0.27176654 -0.12187621 0.24082808 0.4101961 -0.07501704 0.47156313 -0.30641848 -0.6017107 -0.4127929 0.3389392 -0.020607146 0.2346074 -0.41314247 0.473281 0.22778025 -0.016613709 0.08676327 0.8644251 -0.042376515 0.44365692 0.31573567 0.36373207 0.19354956 -0.15994084 -0.5004331 0.3163302
~!! -0.15906458 -0.1304766 -0.1576584 -0.062315382 0.14678104 -0.014192993 -0.100025006 0.09401897 -0.26413205 -0.2643447 0.020729752 -0.19051619 -0.117892794 0.27732894 0.13523331 0.03322313 0.32465667 -0.22517015 -0.28367272 -0.4517333 0.16123869 0.21927209 0.05262678 0.32477272 0.4471855 0.23000792 -0.07456735 -0.028956523 0.1230166 -0.14710574 0.054242793 0.17084244 -0.19344513 0.03968637 0.1736818 0.25630093 0.1981183 -0.24253683 0.0065751243 -0.0074021355 0.013462082 -0.3246019 0.20892063 0.0059205117 0.24246153 0.29249984 -0.69271773 0.11296978 0.08835795 -0.026525619 0.053581554 -0.37366408 -0.29445004 0.12972917 -0.13208582 -0.2595751 0.27078053 -0.08872385 0.12809986 -0.20161155 0.014273607 0.01755941 0.5485764 0.19544354 -0.09387037 0.25671896 -0.1879056 0.10784766 -0.26058382 -0.07847265 0.09615962 0.50024307 -0.21042883 -0.08996977 0.09561963 -0.1974509 0.1628339 0.15837154 0.03532858 0.13573435 -0.17040922 -0.3777482 -0.21359701 0.18542808 0.042755444 0.08861038 0.0976537 0.0768711 0.036292884 -0.014348487 -0.020257598 0.5275458 0.031063518 0.35247004 0.21211828 0.27755165 0.26050237 -0.29363075 -0.29825363 0.19297388
-_- -0.13545518 0.08395123 -0.0050109713 0.100300774 0.076800436 -0.22603661 0.063930206 0.3013458 -0.27917776 -0.17240496 0.016868899 -0.30635896 0.05179049 0.14186941 0.20814131 -0.1310211 0.23412979 -0.22756192 -0.22629309 -0.46856794 0.07713458 0.11705694 0.1277825 0.05842489 0.13402413 0.07838274 -0.2076113 0.14927836 -0.11911353 -0.104883485 0.11452712 -0.0005167937 0.03715119 -0.18746664 0.0047046365 0.17670293 0.20129651 -0.074436866 -0.062085323 0.021404706 -0.0839545 -0.19672759 -0.07502953 0.10125524 0.1071258 -0.022176258 -0.3108751 0.13541415 0.09044223 0.13448082 0.11415456 -0.16330165 -0.16696556 0.018004522 -0.08303558 -0.082972005 0.1903355 0.018210355 0.01223538 0.038263485 0.019128688 -0.06812669 0.27515423 0.02982138 -0.1159704 0.22999568 -0.05888645 0.118615195 -0.26796022 0.05582103 -0.0060205734 0.33714265 -0.008450319 -0.040576186 0.12593755 0.08518733 0.0222384 0.14630477 -0.016335314 0.02570536 -0.24588943 -0.04346015 -0.15418659 0.18235704 -0.05733402 0.06390687 0.13622193 0.12563962 0.22366329 0.120113544 0.054464888 0.26288912 0.06733534 0.058996823 0.39611682 0.13688761 0.1969544 -0.12519391 -0.15515397 -0.09263228
80 -0.15527557 0.121986546 0.03101832 0.08881396 0.07818971 -0.3210315 0.19699241 0.40120485 -0.38279518 -0.31532857 0.12730129 -0.36149257 0.039488323 0.18204191 0.31103596 -0.1504123 0.32683784 -0.20104614 -0.31907296 -0.45926082 0.1603712 0.12636878 0.27954814 0.108488165 0.15487614 0.0836767 -0.12774332 0.22063014 -0.23302755 -0.1138895 0.16260919 -0.07787901 0.037735436 -0.30526602 0.012862178 0.22213885 0.29874638 -0.09262468 -0.14860182 0.065612 -0.12504368 -0.20786875 -0.09472638 0.14259702 0.20809169 0.06441508 -0.34983632 0.12671864 0.10949611 0.15795289 0.033606004 -0.19134252 -0.2612729 -0.09323296 -0.04426306 -0.13378628 0.2143189 0.034973692 -0.00032693645 0.058226757 0.03845436 -0.019040715 0.32381532 0.0045231534 -0.11511627 0.2883509 -0.05523499 0.24643196 -0.254349 0.010826623 0.11617895 0.32296434 0.08306243 0.075859636 0.21783407 0.12148904 0.031612888 0.22742212 -0.105729654 -0.1057888 -0.2950005 -0.01782173 -0.13801385 0.20288166 -0.06507278 0.017484978 0.29458562 0.053616133 0.18304405 -0.016828269 0.056981344 0.2900473 0.077120766 0.06457453 0.556419 0.24376832 0.21085845 -0.2838946 -0.14332673 -0.17004098
ost -0.16485454 0.05895154 -0.012888601 0.054938637 0.09470867 -0.24394675 0.10733495 0.32248518 -0.33381674 -0.2402169 0.1335408 -0.2696702 0.03610466 0.15324686 0.22039361 -0.18877894 0.32942617 -0.28418258 -0.28663754 -0.42256755 0.15333553 0.10606865 0.24647878 0.12667172 0.14870505 0.0975434 -0.10091474 0.25608623 -0.15594558 -0.114880025 0.09730536 0.009051424 0.024558295 -0.2193416 0.048198603 0.15083298 0.25779894 -0.12003922 -0.101716876 0.06645489 -0.18904673 -0.14894599 0.0094852615 0.05157308 0.112465106 0.05196655 -0.28789145 0.2024472 0.09247115 0.0938012 0.020296713 -0.10014175 -0.26925004 -0.017796695 -0.030265922 -0.19905347 0.21536535 -0.018584 0.07629936 0.029573113 0.052564688 -0.04109572 0.33636272 0.07708583 -0.09641185 0.19998866 -0.08042484 0.19841652 -0.30362543 -0.014884405 0.13082293 0.31695202 0.010959224 0.033685412 0.10980601 0.004311795 0.034723975 0.2390745 -0.08674943 -0.09710523 -0.20972551 -0.0070545226 -0.12485511 0.2237204 -0.047585346 -0.0013338272 0.20267281 0.11073907 0.11317147 -0.004794161 0.074556686 0.23383623 0.07003826 0.075959794 0.4175627 0.14889075 0.13272278 -0.27100757 -0.117699176 -0.08288884
♡ -0.14069207 -0.19104682 -0.19165722 -0.05841357 0.12104628 0.053133916 -0.079594925 0.052882228 -0.25815144 -0.0829481 -0.036814917 -0.08422481 -0.09662099 0.26821065 0.02967941 -0.111561164 0.29051232 -0.28495675 -0.31476766 -0.5315895 0.1731404 0.23314543 0.095407486 0.32345235 0.3919446 0.17142777 -0.10296221 -0.013986939 0.0161474 -0.13871078 0.04023774 0.29255584 -0.088215 0.011856017 0.14559099 0.22769047 0.11924342 -0.20061468 -0.05069642 0.0010818536 -0.08139496 -0.3273824 0.13960311 0.0017846681 0.16688757 0.108475715 -0.55268675 0.17556597 0.14034082 0.019010486 0.044262454 -0.25297415 -0.2962275 0.18646207 -0.1749851 -0.27020553 0.22615342 -0.18169431 0.052201632 -0.21782471 0.109588124 -0.025733575 0.5494293 0.1764272 -0.12242797 0.19335757 -0.21652272 0.015384311 -0.35548338 -0.025495797 0.0919915 0.5003543 -0.31812152 -0.14153734 0.024889328 -0.22892731 0.14657238 0.23509106 0.043989234 0.19037053 -0.05184266 -0.29521716 -0.29982507 0.16199864 -0.045335926 0.0893287 0.11029179 0.22547606 0.00010816068 0.111799106 0.025141392 0.4242436 0.055788048 0.26270413 0.11776897 0.1420493 0.26840487 -0.3349803 -0.27269232 0.12943123
SF -0.1610259 0.17316036 0.032405548 0.121710986 0.13885747 -0.31687355 0.24761465 0.48133814 -0.23843366 -0.3635004 0.25376582 -0.31025892 0.13357903 0.12343515 0.3183941 -0.270037 0.27187595 -0.27386194 -0.39286354 -0.41564947 0.11665024 0.19783907 0.24688208 0.16988763 0.06329231 -0.008134092 -0.058375377 0.28483185 -0.26326424 -0.2397838 0.07183056 -0.086541586 0.055305615 -0.26545405 -0.03134218 0.19414295 0.30222508 -0.15184383 -0.22610073 0.030994553 -0.22047324 -0.0656888 -0.09952423 0.11162864 0.16304715 -0.07222946 -0.23438317 0.106452204 0.090204164 0.22576138 0.092127725 -0.17481613 -0.32093322 -0.15438943 -0.1498193 -0.14054735 0.22847882 0.009502061 -0.035675813 -0.0040750955 0.07565334 0.09096698 0.40696707 -0.098614536 -0.19480096 0.26348615 -0.09589103 0.20179464 -0.33288133 -0.114767194 0.19485864 0.3313926 0.030040907 0.09084303 0.17202234 0.1619534 0.041870307 0.25240827 -0.28211483 -0.09667651 -0.27209792 0.13865441 -0.17506441 0.19835548 -0.05169921 0.12329185 0.3582167 0.08334775 0.019065028 0.08778562 -0.0091846995 0.22782725 0.07368198 0.1111851 0.66230625 0.13494857 0.22329581 -0.3357261 -0.16402155 -0.20733313
: -0.45947257 0.37911248 0.15578209 -0.2517972 0.18818407 -0.23638396 0.3898946 0.50479597 -0.069461055 -0.21962507 0.03414325 -0.42774397 0.37201035 -0.4721057 0.024731427 -0.6692347 0.2536545 -0.67913026 -0.03932372 -0.7904686 -0.09980022 0.2436768 0.116770945 -0.030982813 -0.15966077 0.09424128 -0.24579556 0.11894659 -0.4732107 -0.43615082 0.05446763 0.33442008 0.19742252 -0.44638687 -0.28753674 0.101256065 -0.11202813 -0.3546263 -0.5007209 -0.31361187 -0.28922075 -0.004839461 0.15134445 -0.12872826 -0.08396451 -0.6384542 0.4425866 -0.18817945 -0.07984487 0.3660518 0.022890937 -0.08296742 -0.163273 0.20754856 -0.60584414 -0.3526519 0.1588973 -0.059127513 -0.34715548 0.118499875 0.569976 -0.04218305 0.46508873 -0.06642733 -0.53770113 -0.06673417 -0.20911796 -0.06299559 -0.8743081 -0.12913804 0.029042788 0.63746005 0.124413796 -0.097172916 0.17867509 0.09288647 -0.15503205 0.32809427 -0.4310951 0.20935567 0.15677218 0.37635466 -0.6897755 0.48706847 -0.23973769 -0.025352294 -0.06579147 0.5263291 -0.015580162 0.12735632 0.21525766 0.057663243 0.058082562 -0.109436005 0.44742987 -0.01859247 0.3031947 -0.37823358 -0.10588836 -0.35241815
........ -0.12218622 0.08887138 0.018382275 0.122177854 0.08139147 -0.19725686 0.058448896 0.2667477 -0.29958296 -0.15078677 -0.040489193 -0.35424244 0.11390648 0.14647669 0.22742751 -0.065830074 0.26158836 -0.17750911 -0.23270069 -0.45107922 0.07110595 0.11131318 0.082286574 -0.041132934 0.15214303 0.09880764 -0.19910365 0.15629688 -0.12675461 -0.00084497186 0.13223657 -0.029121516 -0.00010663712 -0.24309331 -0.06792371 0.2047488 0.1541949 -0.04753681 -0.08341138 0.02001764 -0.038730256 -0.18605748 -0.087868586 0.11761688 0.10053408 0.006825269 -0.25985515 0.04117854 0.049366344 0.16262347 0.07830853 -0.20562823 -0.14658806 -0.02589011 -0.11766051 -0.059592333 0.18001501 0.051677447 -0.0062275124 0.09877017 0.04121825 -0.12701152 0.2206798 0.026598338 -0.13094227 0.28390405 -0.024142267 0.11251684 -0.236712 0.11496018 -0.019941553 0.28765166 0.04582426 -0.04638449 0.10010002 0.0783489 0.041339513 0.09985647 -0.009373163 -0.0075803017 -0.2764461 -0.053423967 -0.17160544 0.13102244 -0.0470641 -0.011763115 0.09360883 0.094923735 0.27918607 0.05154559 0.06290862 0.24355367 0.034114372 0.021225696 0.31608412 0.16917469 0.19009452 -0.11008786 -0.09493904 -0.09782399
12 -0.16732475 0.114514366 0.0383216 0.060603537 0.0852329 -0.3175528 0.09382987 0.3584326 -0.3361687 -0.23492883 0.023911145 -0.39872113 0.08381992 0.1717193 0.25412208 -0.14663832 0.30341694 -0.28164423 -0.24720208 -0.49357474 0.09226002 0.13778815 0.16357023 0.022629155 0.1770373 0.12781157 -0.22759828 0.22820064 -0.14064808 -0.12752457 0.1272097 0.017883325 0.02529683 -0.24363607 -0.022893552 0.20973474 0.23367134 -0.12609723 -0.109675884 -0.016495869 -0.17317279 -0.17735176 -0.025756491 0.087534234 0.11534217 -0.0034232114 -0.28467736 0.14082718 0.09232456 0.17270458 0.056170154 -0.14447369 -0.20222716 -0.008189492 -0.06802253 -0.14199498 0.21145737 0.04466447 0.0494141 0.08727816 0.06130049 -0.081631444 0.28565592 0.085388996 -0.14127149 0.22639577 -0.0683514 0.16293053 -0.3290784 0.12904996 0.05551131 0.3568464 0.056032345 -0.0017811342 0.14377113 0.09282668 0.0026338394 0.15179883 -0.05980096 -0.026789121 -0.250196 -0.0015976273 -0.17983414 0.20162725 -0.014881834 0.032575402 0.14030507 0.13701469 0.229088 0.055567823 0.10944104 0.26336756 0.07157626 0.040816274 0.42184037 0.21289718 0.197904 -0.19267215 -0.109353356 -0.14018764
D -0.6771781 0.49202415 0.13976066 -0.18257739 0.42238477 -0.27995384 0.06207685 0.6884455 -0.14261673 -0.6502427 0.3890179 -0.38051727 0.4764692 -0.2838983 0.4100535 -0.74475706 0.5009857 -0.9455071 -0.39784846 -0.7874447 -0.2986689 0.3605723 0.13089865 0.13325201 -0.30531335 0.0066434336 -0.3124889 0.47504315 -0.11807411 -0.28129423 -0.11212373 0.1200297 -0.11783922 -0.35386074 -0.10476783 0.28459293 -0.15296231 -0.76554954 -0.3246015 -0.38005355 -0.29773647 0.4450692 -0.014358774 -0.26920366 0.053445578 -0.4335483 0.056370646 -0.009923648 -0.25905314 0.3804109 0.30647767 -0.2498632 -0.45350227 -0.10625749 -0.39537275 -0.3001279 0.12940386 0.3469226 0.13332121 0.10317376 0.20088512 0.16693224 0.64007103 -0.104329996 -0.4402425 0.1559222 0.23443124 0.13302428 -0.8982848 -0.15305379 0.26932985 0.8719585 -0.12471041 -0.05150938 -0.13567433 0.12069438 0.009309266 0.11053243 -0.5565119 0.09380421 -0.36831537 0.5863369 -0.4335349 0.71042615 0.06147579 0.19724953 0.23974898 0.4346798 -0.035938393 0.38935354 -0.048975687 0.040994134 0.06766636 0.120540164 0.6887105 -0.08201143 0.68258685 -0.41524157 0.08719167 -0.14860995
..? -0.18112446 0.12076495 0.045413073 0.14487684 0.060765672 -0.34092182 0.13736825 0.36276472 -0.3932117 -0.23011364 0.054395277 -0.36252433 0.012286516 0.1896692 0.24970803 -0.1083845 0.3258951 -0.22386871 -0.28713828 -0.5089297 0.10468553 0.095771484 0.26730374 -0.034384325 0.18664216 0.13377073 -0.22290431 0.2758167 -0.20565103 -0.03298341 0.18072467 -0.057906523 0.08852468 -0.3337585 0.022926541 0.22822191 0.29559037 -0.06469792 -0.06765023 0.04682079 -0.11053448 -0.24032433 -0.20972039 0.10478494 0.0985169 0.0075760516 -0.29439345 0.19316071 0.11901062 0.14385654 0.074436806 -0.19475888 -0.23044473 0.014000999 -0.044236872 -0.0935573 0.22170687 0.041956097 0.019231603 0.10359177 -0.0057844454 -0.10508435 0.2722793 0.006157207 -0.081556655 0.29363734 -0.012979461 0.15637954 -0.25379196 0.12862849 -0.0003417667 0.34906727 0.04451689 0.052600686 0.1558897 0.061114475 -0.03856278 0.17498639 0.0077752126 -0.073971294 -0.29781237 0.021761583 -0.0999093 0.17060569 -0.092389256 -0.04820181 0.23126142 0.08197135 0.21855922 0.08277951 0.09466295 0.268344 0.08198396 -0.056658544 0.45273674 0.17044687 0.20755702 -0.19764787 -0.15297206 -0.12206878
cg -0.16800529 0.17600785 0.03077447 0.09721632 0.122481406 -0.31763005 0.18446112 0.41303074 -0.43260685 -0.27191502 0.037323352 -0.4067509 0.11099181 0.14479037 0.3443834 -0.1532483 0.33628535 -0.20107783 -0.28153116 -0.49679804 0.11956797 0.1113672 0.23437686 -0.026024122 0.11650188 0.084500454 -0.21790127 0.26394162 -0.1951694 -0.054821506 0.2017069 -0.09189976 0.009504648 -0.30593294 -0.05077315 0.23738211 0.23663859 -0.07571487 -0.13107376 -0.0036593957 -0.13003597 -0.1927622 -0.08460479 0.15459634 0.15652055 0.009847782 -0.22830078 0.059577093 0.075110905 0.18240313 0.06695188 -0.21606779 -0.21900196 -0.07585628 -0.07865351 -0.08682923 0.19808047 0.055840597 -0.013316285 0.071316734 0.053843442 -0.046168648 0.29839805 0.016266385 -0.15620269 0.32759535 0.036541883 0.221146 -0.34595582 0.10524219 0.06976085 0.30603313 0.14008637 0.052099936 0.1520361 0.15278205 -0.007655776 0.20680706 -0.1361387 -0.09072384 -0.31326276 0.018034637 -0.18876973 0.22172841 -0.016490454 -0.005133278 0.19200328 0.07934792 0.24411045 0.005009844 0.10829344 0.24044472 0.06521925 -0.009217852 0.5232829 0.19572753 0.2306023 -0.21744291 -0.055682037 -0.1886612
OST -0.14392973 0.05746383 -0.070481144 0.08069237 0.11494273 -0.16231737 0.20216025 0.325142 -0.26221 -0.23847191 0.16296302 -0.1813933 0.08356294 0.08169995 0.18760219 -0.22438891 0.27140918 -0.2560133 -0.33303052 -0.37160543 0.12919003 0.1735907 0.2126574 0.2527834 0.08678211 -0.0068978257 -0.054158293 0.2057147 -0.2300447 -0.17557946 0.061828308 -0.018863773 0.01555025 -0.15626474 0.011304442 0.20496489 0.25580332 -0.10327978 -0.16253638 0.047702193 -0.1658866 -0.16007747 -0.023343861 0.10088921 0.1521595 -0.040718947 -0.2870069 0.13050006 0.12976831 0.13369219 0.0422608 -0.16258508 -0.26837322 -0.05751743 -0.15118815 -0.13894191 0.22033858 -0.06182367 -0.047805995 -0.11988237 0.09904606 0.048797663 0.3941786 -0.03818924 -0.19890663 0.2405709 -0.12627132 0.15141153 -0.32601807 -0.16252881 0.17452031 0.3327582 -0.03927943 0.04323171 0.15137231 0.07510819 0.04034824 0.3046026 -0.21010254 -0.019292142 -0.17441455 0.018211193 -0.15670763 0.20840983 -0.087443456 0.0857317 0.24078314 0.15038966 0.007705095 0.024855394 0.0021315168 0.25303575 0.040889904 0.12831324 0.50654835 0.07931322 0.1836209 -0.32971603 -0.1592721 -0.119665354
15 -0.17520791 0.14178506 0.023347337 0.09317224 0.10521609 -0.2564254 0.14616624 0.38032654 -0.34337425 -0.24252099 0.10687059 -0.2922426 0.07978984 0.10617757 0.24819443 -0.22326322 0.29785928 -0.27279544 -0.3219994 -0.4960271 0.0769176 0.13376328 0.19712095 0.121238165 0.12891929 0.03647891 -0.1072005 0.25156048 -0.22400364 -0.10905236 0.094629906 -0.043910775 0.036968756 -0.29145107 0.0061474857 0.18065165 0.26521954 -0.11774639 -0.11069846 0.04469619 -0.15043227 -0.15695006 -0.107694365 0.0887261 0.14449422 -0.028080804 -0.27703837 0.18803355 0.072947614 0.14722738 0.09188226 -0.10938299 -0.25263813 -0.067386895 -0.09047683 -0.1751523 0.20652857 -0.012015541 0.0071301437 0.030621842 0.061922897 -0.05908967 0.33681077 -0.017926572 -0.13508752 0.22319451 -0.0469012 0.20575176 -0.335094 -0.012376838 0.10507959 0.37897444 0.021255814 0.040160947 0.13480365 0.105290666 0.042497445 0.22312768 -0.11377053 -0.0822135 -0.24826525 0.015348881 -0.12706022 0.1921684 -0.0929483 0.00067834376 0.21356554 0.127887 0.1759366 0.06369519 0.05627526 0.25868973 0.07353743 0.041255478 0.5278992 0.14455724 0.17871591 -0.25591496 -0.09171629 -0.1551037
., -0.099415034 0.2036736 -0.027785715 -0.03183399 0.22625147 -0.35410497 0.40871432 0.5765161 -0.2773531 -0.4365811 0.3197321 -0.3563512 0.15528245 0.11874277 0.40448004 -0.3661089 0.3637098 -0.24549806 -0.37111476 -0.25982282 0.15405805 0.20582835 0.37406522 0.25721163 -0.004485119 0.005317563 -0.04272277 0.361794 -0.3084086 -0.35150328 0.115306266 -0.123839855 0.021068944 -0.23869926 -0.06896053 0.24092807 0.3943514 -0.24834217 -0.35805407 -0.13296707 -0.42335913 -0.021826476 0.11648699 0.15158807 0.19766268 -0.07700794 -0.13019997 0.011063911 0.17680453 0.19542795 -0.050510578 -0.16580993 -0.36240304 -0.23177308 -0.16311751 -0.17098677 0.18830311 0.0055037295 0.005851047 -0.13854448 0.23164108 0.2258636 0.4185 0.036054567 -0.3192407 0.27474946 -0.1865647 0.32817942 -0.50651145 -0.12955627 0.33211997 0.31726238 0.12651774 0.20342392 0.23721474 0.1949139 -0.053975426 0.4440085 -0.58290344 -0.19167656 -0.18793921 0.16831776 -0.23512985 0.311952 0.047804907 0.20243941 0.36628318 0.15166906 -0.17578988 -0.15466587 0.069852486 0.07234781 0.036718242 0.14118858 0.75767326 0.13462886 0.25828925 -0.48595974 -0.036476657 -0.3534075
~^^ -0.1387093 -0.09918803 -0.07083534 -0.06674114 0.14422609 -0.04280022 -0.08043015 0.10241987 -0.23632552 -0.12917478 -0.015749393 -0.15744916 -0.039824374 0.21513163 0.082646705 -0.0779817 0.28896233 -0.24764578 -0.23599659 -0.49364632 0.11147565 0.13064964 0.07544133 0.1657416 0.33683687 0.2135651 -0.08885869 0.06052636 0.00068337657 -0.11121071 0.012536273 0.20878176 -0.076263696 -0.091113105 0.09853114 0.13238248 0.11556772 -0.24378467 -0.042382244 0.00014924636 -0.10088749 -0.20739764 0.16641665 -0.026181877 0.14613518 0.12348044 -0.4209691 0.15133697 0.044687014 0.010639955 0.043048255 -0.15339018 -0.2408017 0.14275147 -0.11835976 -0.30095097 0.18310873 -0.051657155 0.10281495 -0.075141005 0.04942227 -0.09346076 0.38275602 0.19277948 -0.063058354 0.1466918 -0.15852425 0.056356132 -0.3183514 0.03152034 0.021115758 0.44267774 -0.18869624 -0.10892396 0.012014834 -0.18202677 0.098236606 0.17157869 0.059801325 0.098136626 -0.119374566 -0.19065751 -0.22162768 0.1477769 -0.01414976 0.0717304 0.07374713 0.11287674 0.09239446 0.0517835 0.026249982 0.34082898 0.060632065 0.17788039 0.14378196 0.17633699 0.18633248 -0.25436017 -0.18743028 0.09860317
"" -0.15215677 0.08937572 -0.0044048317 0.14652677 0.060236912 -0.20830022 0.18376918 0.31576484 -0.2613797 -0.17916024 0.10544903 -0.2706593 0.08073558 0.009865958 0.18470226 -0.24608275 0.23162568 -0.25636482 -0.21775739 -0.4220877 0.17238875 0.09533302 0.15511963 0.15403846 0.09942974 0.051984895 -0.10483905 0.20367882 -0.24933116 -0.22026551 0.12314158 0.0062467973 0.09315378 -0.24259827 0.017096326 0.10304375 0.27178884 -0.047909833 -0.17835198 0.094684556 -0.16525951 -0.19350454 -0.0736813 0.094247945 0.055517673 -0.09537384 -0.18479276 0.14217007 0.107834324 0.13499048 0.017413761 -0.12567209 -0.21899566 0.059130684 -0.14625841 -0.12287947 0.19810936 -0.08727102 -0.08102454 0.05856953 0.12692821 -0.013509505 0.33860165 -0.043102067 -0.18258387 0.19497931 -0.10732303 0.1898528 -0.2767812 -0.11137628 0.08319407 0.30325648 0.036100376 0.013099596 0.1659569 0.10971371 -0.001948226 0.28756517 -0.11948758 -0.091622345 -0.21768264 -0.014995875 -0.19251513 0.21530603 -0.17939124 -0.0013975034 0.19712023 0.085631564 0.12766461 0.02547688 0.031598378 0.24632227 0.09445883 0.08966087 0.5014856 0.11284831 0.119975746 -0.25067037 -0.19597803 -0.14678177
~~~~ -0.08189917 -0.048963618 -0.067992456 0.005181517 0.12147193 -0.10060453 -0.04170991 0.20336801 -0.234046 -0.10964047 -0.05544326 -0.2521277 -0.0145882275 0.18890508 0.10964278 -0.055621542 0.20936365 -0.22839722 -0.19756962 -0.463897 0.13661721 0.18103611 0.07151312 0.12723143 0.24479385 0.16573755 -0.17732371 0.0388306 -0.00520974 -0.1167981 0.08387885 0.10848522 -0.006230838 -0.1051693 0.023942009 0.19031246 0.1269753 -0.13570718 -0.088932306 -0.059469555 -0.08072189 -0.24138692 0.06812533 0.070367895 0.118423425 0.04221582 -0.36581337 0.05006963 0.09190497 0.094419144 0.038120974 -0.21329527 -0.18715768 0.122883394 -0.09361852 -0.14947152 0.17501055 -0.067668386 0.015908578 -0.06401153 0.060546733 -0.053634677 0.3350643 0.11555706 -0.16512191 0.22087152 -0.10672563 0.06759828 -0.3113008 0.083280414 -0.0012304945 0.3688347 -0.10428343 -0.09918986 0.071021 -0.042256765 0.07763775 0.15151139 -0.018955322 0.075423375 -0.15442358 -0.17444222 -0.23097137 0.14835978 -0.025015583 0.09140652 0.02271151 0.15250379 0.1307574 0.06947444 0.052221864 0.28169996 0.04729993 0.15303907 0.20535792 0.17242604 0.17891058 -0.15838683 -0.18727574 0.030765697
b -0.13666673 0.07009922 -0.006233095 0.10076323 0.08116254 -0.17264582 0.07392503 0.3138455 -0.22205937 -0.13062088 0.029757759 -0.2792425 0.1197243 0.10861089 0.16722192 -0.20232816 0.20191824 -0.28184003 -0.25279552 -0.50554925 0.08281683 0.16644311 0.087891765 0.108211264 0.1215251 0.056212008 -0.17559242 0.16184118 -0.17045355 -0.16704929 0.07809517 0.015157168 0.047732875 -0.1736843 -0.032853026 0.17749596 0.16697964 -0.09922208 -0.11116437 -0.046821464 -0.14491731 -0.18576424 -0.0933766 0.08496909 0.091067 -0.13324016 -0.28050742 0.09235053 0.08705966 0.1818466 0.095299445 -0.14240777 -0.2007919 0.015222463 -0.13317895 -0.09610045 0.17551614 -0.03924198 -0.047801737 -0.015436299 0.08490384 -0.056631885 0.31523907 -0.04736391 -0.22641844 0.24090973 -0.08666385 0.07257164 -0.3142002 0.024856955 0.029128795 0.3899165 -0.073768064 -0.071903184 0.12183822 0.109533995 0.06439924 0.16782781 -0.09640458 0.0721521 -0.20802626 -0.039384726 -0.22359976 0.18348289 -0.106879234 0.10615506 0.080775216 0.17849718 0.18191019 0.15166315 0.026527764 0.23792411 0.06858817 0.06343448 0.38732472 0.097091846 0.21136613 -0.17866595 -0.18152098 -0.09838003
...? -0.1354901 0.11301359 0.0354974 0.06319361 0.05675442 -0.24487711 0.113858804 0.33921674 -0.33103412 -0.15797552 0.018950338 -0.3419826 0.064067036 0.1032785 0.21870439 -0.15931942 0.28079265 -0.25254923 -0.23724048 -0.46875662 0.11387509 0.08542912 0.22014381 0.01939823 0.098250754 0.10209371 -0.17383553 0.20447804 -0.14850093 -0.07807841 0.122641325 -0.008510148 0.043998063 -0.27886742 -0.031959213 0.13345914 0.21956226 -0.09202152 -0.13213117 0.0047926777 -0.15724054 -0.15769342 -0.050112005 0.08204693 0.12049014 0.004926202 -0.22376326 0.12679207 0.0611484 0.13877134 -0.0074609136 -0.09861341 -0.18541083 -0.04442932 -0.067061216 -0.13824719 0.14797212 -0.013130035 0.032097585 0.0931036 0.07095724 -0.13416456 0.25313687 0.054065526 -0.11658372 0.2117492 -0.026083698 0.21487734 -0.31426018 0.06581747 0.036793865 0.3101302 0.07383499 -0.004620142 0.10265086 0.08607903 0.04005311 0.17121696 -0.05610013 -0.056638457 -0.2304286 -0.039356656 -0.16012195 0.2143554 -0.06847459 -0.064324066 0.14671673 0.11392258 0.24419235 0.010720366 0.08287257 0.216737 0.05588953 -0.017362494 0.42179123 0.1740992 0.14207998 -0.16695367 -0.061112255 -0.12803607
40 -0.19691892 0.17108037 0.035397764 0.0861356 0.089603014 -0.31292996 0.1678374 0.3969807 -0.31627455 -0.24945301 0.10208222 -0.36453792 0.09230116 0.08456076 0.24838722 -0.17841844 0.32835144 -0.33274585 -0.27459252 -0.503894 0.10801602 0.13512607 0.24599263 0.03471291 0.11928726 0.09537575 -0.17603052 0.25122842 -0.1763425 -0.09133409 0.12352621 -0.0048094536 0.06679994 -0.29391378 -0.035018563 0.20056202 0.26483363 -0.108186916 -0.14053403 0.018458884 -0.17823625 -0.14660035 -0.060637925 0.046300557 0.08990262 -0.016486455 -0.21376258 0.17384091 0.056233607 0.18946718 0.02759877 -0.13904157 -0.2380395 -0.009039496 -0.09109738 -0.15653382 0.21086828 0.03444179 0.023105746 0.10862596 0.052600667 -0.10446842 0.31169486 0.024927624 -0.131633 0.20183223 -0.056395233 0.17786486 -0.35834664 0.041055538 0.08721228 0.36676764 0.06519103 0.016593624 0.118711926 0.06732719 -0.015404593 0.16976057 -0.09412558 -0.054755192 -0.2368688 0.045073073 -0.14210832 0.20678605 -0.070375785 -0.026525497 0.14382492 0.14082277 0.2188789 0.04837984 0.11462289 0.22885804 0.073329076 0.0011546738 0.47598296 0.1552308 0.16356461 -0.2395431 -0.09967194 -0.1318416
(?) -0.12202111 0.09723653 -0.02468845 0.11162909 0.12661873 -0.18684348 0.1463674 0.32439128 -0.26270586 -0.21978176 0.11923597 -0.26817554 0.11723097 0.13977383 0.23399253 -0.20276609 0.23464559 -0.19314013 -0.32566652 -0.42583677 0.12163515 0.13997003 0.1185783 0.17049393 0.10667325 0.022455048 -0.04854973 0.19720429 -0.23724154 -0.1785775 0.1246605 -0.053438928 0.012110788 -0.2112175 0.0019695426 0.1598951 0.23910302 -0.06958247 -0.14498398 0.047439672 -0.14319323 -0.15959303 -0.06871696 0.123443946 0.14856438 -0.042150795 -0.2763142 0.091893785 0.11839575 0.14263101 0.07939303 -0.15384051 -0.23962839 -0.050683394 -0.13161854 -0.1045595 0.198826 -0.057021018 -0.06808343 -0.023664244 0.11245273 0.0014756114 0.35352203 -0.023330668 -0.1844746 0.24664867 -0.078906156 0.16341105 -0.26682547 -0.06250117 0.13147807 0.29430676 0.0037645046 0.023312524 0.14765814 0.13649088 0.080826946 0.24868263 -0.15689349 -0.07773144 -0.24047989 -0.024874432 -0.20518334 0.1736497 -0.11653908 0.06252825 0.21576412 0.09434595 0.11306309 0.057927452 -0.0044010505 0.27555203 0.08772298 0.13504978 0.4987542 0.14400017 0.16636989 -0.26107487 -0.1368445 -0.16472901
11 -0.20226252 0.11144063 0.0169557 -0.068765566 0.099621944 -0.25950432 0.0675324 0.32679668 -0.23136106 -0.19634773 0.0059171654 -0.3173039 0.08686664 0.07402708 0.13548313 -0.16179347 0.27311513 -0.3944068 -0.24945188 -0.5278708 0.010388917 0.20639053 0.16436762 0.032384884 0.14723784 0.072799735 -0.18437825 0.16454427 -0.0612243 -0.13041888 0.03858149 0.10638145 0.033468463 -0.20613836 -0.06929043 0.23154923 0.16264437 -0.18314627 -0.09976406 -0.07626541 -0.16530944 -0.14391837 0.038300205 -0.04333479 0.06887877 -0.05310868 -0.20468427 0.16789947 0.020234555 0.15843686 0.1075017 -0.116597615 -0.19185582 0.031761926 -0.13489038 -0.22215252 0.22846478 0.009616419 0.06300495 0.032264397 0.095033735 -0.10886437 0.34109882 0.085227534 -0.12455628 0.11950173 -0.11172464 0.031188326 -0.45372054 0.06722546 0.0455167 0.4194813 -0.031157935 -0.044292748 0.059446104 -0.012921719 -0.007850342 0.11382478 -0.059240635 0.086101666 -0.10248416 0.041220583 -0.20204894 0.20879205 0.019368824 0.049601182 0.02560611 0.27068147 0.15863253 0.12948902 0.1534444 0.23256527 0.04640318 0.004040492 0.31713036 0.09458159 0.16227236 -0.20931195 -0.07070741 -0.09201188
,,,, 0.0041456 0.08993081 -0.1891129 0.010228659 0.1741982 -0.24372602 0.14190193 0.41413224 -0.4291836 -0.27789116 0.049587123 -0.48234984 0.097175576 0.2227651 0.39058504 -0.18543136 0.3692123 -0.18674454 -0.12411057 -0.18188426 0.24010845 0.116601475 0.21702924 0.120579176 0.0839125 0.09169288 -0.28728494 0.20018171 0.042700607 -0.28073913 0.23166163 -0.11665268 -0.07568945 -0.061996624 -0.0082152905 0.200044 0.33744198 -0.034229036 -0.17649978 -0.11959881 -0.26991194 -0.19097666 0.20439672 0.23020083 0.06709917 0.12393639 -0.27473456 0.00061056163 0.1496143 0.10561366 -0.10992674 -0.29162756 -0.18254705 -0.034911938 0.010890329 -0.020439252 0.21178535 -0.009206823 0.114134505 -0.1083746 0.14340462 0.14862859 0.368412 0.19610843 -0.30964422 0.3644814 -0.02477312 0.31030938 -0.41380388 0.08935147 0.212457 0.16009279 0.20833856 0.061884526 0.16555654 0.12871137 -0.046593428 0.3543143 -0.39233285 -0.19169621 -0.35460526 -0.09570188 -0.2310515 0.29066205 0.17959364 0.11142973 0.100806914 0.15701318 0.069010444 -0.19648522 0.13899367 0.13689503 -0.016147796 0.24211338 0.5391128 0.2521296 0.18866105 -0.24003911 -0.042715054 -0.18335533
19 -0.15672085 0.113947704 0.02352849 0.066396184 0.053713173 -0.30636606 0.11672681 0.35360602 -0.3512731 -0.16559896 -0.0033186234 -0.37653774 0.06050567 0.16520432 0.20888315 -0.15738226 0.2789861 -0.23649327 -0.21017706 -0.5316392 0.108539686 0.1397661 0.18555968 0.023601778 0.1640303 0.11280731 -0.23323047 0.21474117 -0.18008716 -0.09352256 0.1304583 0.010985303 0.07201454 -0.27278143 -0.022660222 0.19966215 0.2379693 -0.0760239 -0.09270514 -0.031370644 -0.16811256 -0.2194659 -0.1211276 0.11767101 0.095212445 -0.038779702 -0.27258092 0.15681626 0.115881965 0.17066664 0.056252077 -0.11133552 -0.16700366 0.011743434 -0.059960626 -0.1297593 0.18720551 -0.012086582 0.011870063 0.0809363 0.06508601 -0.119848385 0.24085324 0.032420125 -0.15591344 0.23594108 -0.07183675 0.15656246 -0.34030467 0.15822132 -0.009965413 0.38969496 0.043187786 -0.005609207 0.16015142 0.09489034 -0.012903414 0.17910151 -0.04623717 -0.034115594 -0.21162833 -0.012974788 -0.16026737 0.18907644 -0.06828311 0.0045468537 0.092407644 0.14358138 0.23954229 0.07965011 0.14307381 0.224991 0.07721932 -0.01850996 0.40383607 0.17961879 0.18451002 -0.16458775 -0.09554453 -0.1491138
......... -0.118556656 0.07455524 -0.021386543 0.063902415 0.09731125 -0.16480865 0.071758695 0.27345142 -0.28023708 -0.13645744 -0.07902477 -0.34469813 0.09946394 0.09504424 0.1854489 -0.08353906 0.23338202 -0.22895522 -0.14607967 -0.45024058 0.11051084 0.11519525 0.045212355 0.020581214 0.14312044 0.096613415 -0.22025882 0.09777694 -0.06348601 -0.09517001 0.14584309 0.032197025 -0.0027089494 -0.1955721 -0.031645037 0.18738914 0.16922896 -0.052460775 -0.0905454 -0.025488056 -0.055431686 -0.22488956 -0.0075038443 0.1158938 0.088268034 -0.0060618264 -0.23235139 0.04488078 0.059626706 0.13859358 0.05103635 -0.20636141 -0.1398767 0.0770473 -0.12958705 -0.06341277 0.18811828 0.008899539 -0.028217744 0.06467647 0.0784183 -0.07830205 0.27509785 0.06038288 -0.18827161 0.23568617 -0.031977244 0.11593416 -0.2977818 0.088408604 -0.016814124 0.293695 0.05901848 -0.06997289 0.10639235 0.057536338 0.015454839 0.12620154 -0.04801266 0.032097783 -0.23037265 -0.08116017 -0.22654405 0.16959861 -0.01119463 0.004723574 0.04602615 0.1693244 0.25272062 0.035972815 0.07166776 0.26471844 0.027456006 0.08049819 0.31690735 0.17620453 0.17729896 -0.11496804 -0.111077875 -0.07799279
,. -0.122446544 0.10217809 -0.037796106 0.030969657 0.13198319 -0.20406495 0.1756502 0.3477511 -0.22619931 -0.21724667 0.09755996 -0.3027843 0.10541199 0.09624739 0.22420044 -0.21598142 0.24255258 -0.23216069 -0.25595513 -0.38025233 0.1257344 0.17144518 0.119798936 0.16131788 0.10096123 0.033262473 -0.105223775 0.1565083 -0.18346073 -0.24319687 0.11953178 -0.005245692 0.0021602565 -0.17578505 -0.029861845 0.1792554 0.23723857 -0.114238665 -0.16999078 -0.045014836 -0.19309162 -0.1476277 0.03222483 0.10650311 0.12088288 -0.056769986 -0.23613134 0.06751033 0.10560006 0.14952296 0.04670971 -0.18292221 -0.21883701 -0.024684614 -0.15188818 -0.10357104 0.19133319 -0.035005283 -0.04508191 -0.045718905 0.13577256 0.05355092 0.36278138 0.0015742186 -0.22760081 0.21278588 -0.12950562 0.16759145 -0.32626784 -0.066018276 0.1361695 0.30693758 0.012823554 0.025191478 0.16881979 0.11517665 0.017092302 0.26943478 -0.23331968 -0.046593945 -0.19671603 -0.005721638 -0.22811045 0.19833016 -0.043748204 0.10578585 0.170437 0.1402502 0.0725328 0.004611303 0.045270365 0.23176624 0.042973813 0.1307516 0.48000014 0.15311284 0.19243042 -0.26043504 -0.12270356 -0.15676428
???? -0.12733059 0.05598204 -0.008319571 0.06533106 0.08254204 -0.18520498 0.014592297 0.25552294 -0.3249455 -0.09528928 -0.07548306 -0.31796515 0.03617018 0.1325516 0.16673423 -0.08129572 0.26456058 -0.2480307 -0.19928941 -0.4951821 0.094771735 0.089183174 0.118586466 0.015858727 0.15302871 0.12940064 -0.21287599 0.15318792 -0.062407374 -0.040240433 0.12342079 0.040083423 0.015841043 -0.21039884 0.0017934943 0.1621283 0.18078153 -0.10474533 -0.058566604 0.012464258 -0.07405522 -0.23135877 -0.042578496 0.07502576 0.106345646 0.02543766 -0.2762204 0.09964067 0.0615756 0.10510251 0.030719846 -0.15692659 -0.15682451 0.07208111 -0.07231462 -0.112238064 0.15084612 -0.004576534 0.05533013 0.0756436 0.05505445 -0.15619177 0.2446959 0.096921414 -0.10580211 0.23740163 -0.0007013896 0.1336 -0.3036718 0.11566014 -0.043833405 0.32244062 0.014806371 -0.080530755 0.056251936 0.029055536 0.021856982 0.12643418 0.043500096 0.007883772 -0.23523702 -0.10052201 -0.1590266 0.17823254 -0.032523658 -0.02186745 0.05654908 0.13257645 0.27671212 0.04169454 0.07036055 0.24527924 0.053931504 0.016679974 0.28643867 0.14300975 0.16046095 -0.10190929 -0.100607194 -0.039685696
21 -0.14587262 0.10774936 0.024005705 0.16029775 0.05953026 -0.25958416 0.18060267 0.38588873 -0.29066485 -0.22207578 0.12742186 -0.28032666 0.09235616 0.12675548 0.19702375 -0.24314658 0.22735915 -0.24241713 -0.3120738 -0.49147213 0.12112602 0.17185059 0.17056239 0.15716265 0.13596876 0.022074642 -0.08133829 0.23371187 -0.34345517 -0.19468857 0.11304426 -0.029015714 0.12357001 -0.27362737 -0.024063172 0.18288378 0.2591694 -0.06317678 -0.15662684 0.047337137 -0.18540908 -0.16952926 -0.1795555 0.115998626 0.11248722 -0.13761693 -0.30499643 0.16805232 0.14513735 0.18870158 0.0759678 -0.12162038 -0.23916186 -0.013517629 -0.118018985 -0.1333315 0.21169421 -0.06359801 -0.09676854 -0.004228098 0.097645886 0.0049986015 0.33554453 -0.10005377 -0.20859678 0.24587642 -0.13139427 0.10440691 -0.26313892 -0.053901315 0.0895965 0.37359193 -0.047533005 -0.0004319746 0.23059842 0.13915703 0.042307463 0.2531903 -0.13249312 -0.050121702 -0.20033026 0.024057556 -0.18002811 0.17738388 -0.1767064 0.078079596 0.22741283 0.10987174 0.11570414 0.11284356 0.035182342 0.28359082 0.0953625 0.07040389 0.53756374 0.12440222 0.15040842 -0.2923014 -0.20279989 -0.16544048
& -0.106055185 -0.013686497 -0.15359281 0.034073096 0.1397117 -0.047458455 0.096160896 0.33587128 -0.20720117 0.040873174 -0.12730612 -0.40932614 0.12818281 -0.09038027 0.05871098 -0.27745748 0.14724648 -0.449622 -0.11649406 -0.6400353 0.20894971 0.21775772 -0.19805953 0.2570151 0.1555115 0.051082242 -0.2758849 -0.072885096 -0.12690099 -0.48774844 0.23623066 0.23214945 0.07030914 -0.12320018 -0.023366377 0.091944754 0.21184261 -0.019149289 -0.15140487 -0.07739679 -0.111711584 -0.49290153 0.08469143 0.18245158 0.06533041 -0.21060318 -0.25827658 0.09194998 0.08699524 0.23429626 0.06846773 -0.2971357 -0.13612652 0.31763804 -0.31176236 -0.06534455 0.3629072 -0.30488244 -0.3142347 -0.02560618 0.32554162 -0.03359231 0.52474266 -0.02120044 -0.41437575 0.20482652 -0.17349958 0.021636436 -0.4301745 -0.095149964 -0.037951633 0.3390469 -0.11717079 -0.20083696 0.21177238 0.071178615 0.06932831 0.34057707 -0.15280534 0.111898676 -0.18290746 -0.18071942 -0.56245315 0.31357208 -0.16207516 0.1127484 -0.073411405 0.41111836 0.3023141 0.13543665 0.041839525 0.39960206 0.10977878 0.32666704 0.5105617 0.19054718 0.14772095 -0.2521423 -0.37064588 -0.14884643
